{"learner":{"attributes":{"scikit_learn":"{\"_estimator_type\": \"classifier\"}"},"feature_names":["amount","is_new_payee","time_of_day_hour","device_trust_score","ip_risk_score","txn_count_1h","txn_count_24h","failed_txn_24h","geo_distance","amount_deviation","is_international","payment_channel_code","merchant_risk_score"],"feature_types":["float","int","int","int","float","int","int","int","float","float","int","int","float"],"gradient_booster":{"model":{"cats":{"enc":[],"feature_segments":[],"sorted_idx":[]},"gbtree_model_param":{"num_parallel_tree":"1","num_trees":"300"},"iteration_indptr":[0,1,2,3,4,5,6,7,8,9,10,11,12,13,14,15,16,17,18,19,20,21,22,23,24,25,26,27,28,29,30,31,32,33,34,35,36,37,38,39,40,41,42,43,44,45,46,47,48,49,50,51,52,53,54,55,56,57,58,59,60,61,62,63,64,65,66,67,68,69,70,71,72,73,74,75,76,77,78,79,80,81,82,83,84,85,86,87,88,89,90,91,92,93,94,95,96,97,98,99,100,101,102,103,104,105,106,107,108,109,110,111,112,113,114,115,116,117,118,119,120,121,122,123,124,125,126,127,128,129,130,131,132,133,134,135,136,137,138,139,140,141,142,143,144,145,146,147,148,149,150,151,152,153,154,155,156,157,158,159,160,161,162,163,164,165,166,167,168,169,170,171,172,173,174,175,176,177,178,179,180,181,182,183,184,185,186,187,188,189,190,191,192,193,194,195,196,197,198,199,200,201,202,203,204,205,206,207,208,209,210,211,212,213,214,215,216,217,218,219,220,221,222,223,224,225,226,227,228,229,230,231,232,233,234,235,236,237,238,239,240,241,242,243,244,245,246,247,248,249,250,251,252,253,254,255,256,257,258,259,260,261,262,263,264,265,266,267,268,269,270,271,272,273,274,275,276,277,278,279,280,281,282,283,284,285,286,287,288,289,290,291,292,293,294,295,296,297,298,299,300],"tree_info":[0,0,0,0,0,0,0,0,0,0,0,0,0,0,0,0,0,0,0,0,0,0,0,0,0,0,0,0,0,0,0,0,0,0,0,0,0,0,0,0,0,0,0,0,0,0,0,0,0,0,0,0,0,0,0,0,0,0,0,0,0,0,0,0,0,0,0,0,0,0,0,0,0,0,0,0,0,0,0,0,0,0,0,0,0,0,0,0,0,0,0,0,0,0,0,0,0,0,0,0,0,0,0,0,0,0,0,0,0,0,0,0,0,0,0,0,0,0,0,0,0,0,0,0,0,0,0,0,0,0,0,0,0,0,0,0,0,0,0,0,0,0,0,0,0,0,0,0,0,0,0,0,0,0,0,0,0,0,0,0,0,0,0,0,0,0,0,0,0,0,0,0,0,0,0,0,0,0,0,0,0,0,0,0,0,0,0,0,0,0,0,0,0,0,0,0,0,0,0,0,0,0,0,0,0,0,0,0,0,0,0,0,0,0,0,0,0,0,0,0,0,0,0,0,0,0,0,0,0,0,0,0,0,0,0,0,0,0,0,0,0,0,0,0,0,0,0,0,0,0,0,0,0,0,0,0,0,0,0,0,0,0,0,0,0,0,0,0,0,0,0,0,0,0,0,0,0,0,0,0,0,0,0,0,0,0,0,0,0,0,0,0,0,0,0,0,0,0,0,0],"trees":[{"base_weights":[8.571673E-4,7.9246145E-1,-1.8461045E0,9.627069E-2,1.5667062E0,-1.8912736E0,1.8461201E-2,1.4877343E0,-3.6552727E-2,1.0543972E0,1.8386396E0,-1.9297063E0,-1.5238012E0,-4.8839957E-1,8.230666E-1,1.1838808E0,1.9205649E0,-3.807592E-1,4.6094856E-1,1.130174E0,-1.7175115E0,1.0768831E0,1.9193141E0,-1.9375827E0,-1.7791092E0,-1.6028001E0,-3.2916945E-1,-9.4328344E-1,3.2840237E-1,4.6583363E-1,1.4191905E0,1.2177459E0,-1.8070002E0,1.9580264E0,1.6513613E0,5.354157E-1,-4.9498507E-1,5.4225147E-1,-1.7369182E0,7.480206E-1,1.5161718E0,-9.7996406E-2,-1.2306509E0,1.1237179E0,-1.3734478E0,1.9301987E0,-1.2396123E0,-1.9475113E0,-1.8703414E0,-1.8480161E0,-1.3460027E0,-1.6669416E0,-8.601431E-1,-7.061344E-1,3.7539488E-1,-1.0657673E0,2.8294227E-1,7.4491605E-2,1.2910631E0,5.74732E-2,1.1685655E0,1.217263E0,1.8091561E0,6.976958E-2,3.5277013E-2,-9.2399195E-2,-4.3561906E-2,9.564968E-2,9.978076E-2,4.0559053E-2,9.72758E-2,2.9521346E-2,-9.473472E-2,2.4319324E-3,-3.0468365E-2,6.796663E-3,3.5138275E-2,-7.1872786E-2,-9.571914E-2,3.125041E-2,4.383151E-2,7.888271E-2,3.930519E-2,-7.326003E-2,-5.244106E-2,3.1541258E-2,5.9869457E-2,-7.845269E-2,-3.7007127E-2,8.845738E-2,9.862852E-2,-1.9799942E-2,-8.9675926E-2,-9.763585E-2,-9.649012E-2,-9.457799E-2,-8.0172256E-2,-9.376752E-2,-7.5033866E-2,-7.362842E-2,-2.3062395E-2,-8.883331E-2,-6.831424E-2,-5.7279605E-2,-5.5787126E-3,-4.5261186E-2,2.102231E-2,1.1835854E-2,5.4645848E-2,-5.9656896E-2,-2.948882E-2,-5.009783E-2,2.2380268E-2,-2.4911307E-3,6.287676E-2,4.228947E-2,7.64814E-2,-5.0531537E-3,6.603665E-2,5.17728E-2,8.7501965E-2,4.971404E-2,8.332875E-2,9.2785984E-2,3.8874812E-2],"categories":[],"categories_nodes":[],"categories_segments":[],"categories_sizes":[],"default_left":[0,0,0,0,0,0,0,0,0,0,0,0,0,0,0,0,0,0,0,0,0,0,0,0,0,0,0,0,0,0,0,0,0,0,0,0,0,0,0,0,0,0,0,0,0,0,0,0,0,0,0,0,0,0,0,0,0,0,0,0,0,0,0,0,0,0,0,0,0,0,0,0,0,0,0,0,0,0,0,0,0,0,0,0,0,0,0,0,0,0,0,0,0,0,0,0,0,0,0,0,0,0,0,0,0,0,0,0,0,0,0,0,0,0,0,0,0,0,0,0,0,0,0,0,0],"id":0,"left_children":[1,3,5,7,9,11,13,15,17,19,21,23,25,27,29,31,33,35,37,39,41,43,45,47,49,51,53,55,57,59,61,63,65,67,69,71,73,75,77,79,81,-1,83,85,87,89,91,93,95,97,99,101,103,105,107,109,111,113,115,117,119,121,123,-1,-1,-1,-1,-1,-1,-1,-1,-1,-1,-1,-1,-1,-1,-1,-1,-1,-1,-1,-1,-1,-1,-1,-1,-1,-1,-1,-1,-1,-1,-1,-1,-1,-1,-1,-1,-1,-1,-1,-1,-1,-1,-1,-1,-1,-1,-1,-1,-1,-1,-1,-1,-1,-1,-1,-1,-1,-1,-1,-1,-1,-1],"loss_changes":[3.17061E5,8.182242E4,5.4795E3,1.4772464E4,1.0010594E4,8.941719E2,6.283694E2,9.1372656E2,1.2494965E4,5.236949E3,2.8830781E3,6.4765625E1,5.6753516E2,3.515442E2,1.2614987E2,4.1694336E2,2.572168E1,4.5135938E3,5.332911E3,3.577541E3,7.59082E1,5.177627E2,1.4620156E3,3.2828125E1,8.317383E1,2.674961E2,9.9759964E1,9.153424E1,8.273741E1,1.0721214E2,1.5329895E1,3.6748438E2,1.6360474E-1,4.3945312E-1,8.668091E1,6.4031323E2,2.3844834E3,1.8766074E3,5.382788E1,1.9235107E2,5.4047266E2,0E0,7.9854126E0,1.5954004E2,9.345413E0,2.851875E2,6.768939E1,5.9375E-1,3.6914062E1,2.0669922E1,4.385034E1,1.6897559E2,9.6219666E1,5.519429E1,1.2798496E1,3.279181E1,1.228718E1,3.965622E1,6.2130356E0,4.7696667E1,8.818359E0,1.3345703E1,2.1071625E0,0E0,0E0,0E0,0E0,0E0,0E0,0E0,0E0,0E0,0E0,0E0,0E0,0E0,0E0,0E0,0E0,0E0,0E0,0E0,0E0,0E0,0E0,0E0,0E0,0E0,0E0,0E0,0E0,0E0,0E0,0E0,0E0,0E0,0E0,0E0,0E0,0E0,0E0,0E0,0E0,0E0,0E0,0E0,0E0,0E0,0E0,0E0,0E0,0E0,0E0,0E0,0E0,0E0,0E0,0E0,0E0,0E0,0E0,0E0,0E0,0E0,0E0],"parents":[2147483647,0,0,1,1,2,2,3,3,4,4,5,5,6,6,7,7,8,8,9,9,10,10,11,11,12,12,13,13,14,14,15,15,16,16,17,17,18,18,19,19,20,20,21,21,22,22,23,23,24,24,25,25,26,26,27,27,28,28,29,29,30,30,31,31,32,32,33,33,34,34,35,35,36,36,37,37,38,38,39,39,40,40,42,42,43,43,44,44,45,45,46,46,47,47,48,48,49,49,50,50,51,51,52,52,53,53,54,54,55,55,56,56,57,57,58,58,59,59,60,60,61,61,62,62],"right_children":[2,4,6,8,10,12,14,16,18,20,22,24,26,28,30,32,34,36,38,40,42,44,46,48,50,52,54,56,58,60,62,64,66,68,70,72,74,76,78,80,82,-1,84,86,88,90,92,94,96,98,100,102,104,106,108,110,112,114,116,118,120,122,124,-1,-1,-1,-1,-1,-1,-1,-1,-1,-1,-1,-1,-1,-1,-1,-1,-1,-1,-1,-1,-1,-1,-1,-1,-1,-1,-1,-1,-1,-1,-1,-1,-1,-1,-1,-1,-1,-1,-1,-1,-1,-1,-1,-1,-1,-1,-1,-1,-1,-1,-1,-1,-1,-1,-1,-1,-1,-1,-1,-1,-1,-1],"split_conditions":[2.04953E-1,6.67156E-1,8E0,1.18654E-1,1.0144646E0,6E0,9E0,9.937968E-1,4.62961E-1,1.7342448E0,4.09099E-1,2E0,2E0,1E0,1E1,2E0,9.3494E-2,3.80835E-1,1.6788806E0,7.997048E-1,2.4271414E0,2.1524334E0,2.4271414E0,5E0,5E0,1E0,7E0,1E0,2E0,1E0,1E0,9.3494E-2,2E0,1.3208435E0,1.2904713E0,2E0,2.08752E-1,5.07933E-1,1.9181155E0,4.1323414E-1,1.4564807E0,-9.7996406E-2,7.814632E-1,1.0877357E0,2.658238E0,1.2783964E0,1.1601572E0,4E0,1E0,1E0,3E0,1E0,1E0,3E0,3E0,3.72547E-1,9.0656E-2,1E0,1.86444E-1,1E0,2E0,1.1E1,4.52268E3,6.976958E-2,3.5277013E-2,-9.2399195E-2,-4.3561906E-2,9.564968E-2,9.978076E-2,4.0559053E-2,9.72758E-2,2.9521346E-2,-9.473472E-2,2.4319324E-3,-3.0468365E-2,6.796663E-3,3.5138275E-2,-7.1872786E-2,-9.571914E-2,3.125041E-2,4.383151E-2,7.888271E-2,3.930519E-2,-7.326003E-2,-5.244106E-2,3.1541258E-2,5.9869457E-2,-7.845269E-2,-3.7007127E-2,8.845738E-2,9.862852E-2,-1.9799942E-2,-8.9675926E-2,-9.763585E-2,-9.649012E-2,-9.457799E-2,-8.0172256E-2,-9.376752E-2,-7.5033866E-2,-7.362842E-2,-2.3062395E-2,-8.883331E-2,-6.831424E-2,-5.7279605E-2,-5.5787126E-3,-4.5261186E-2,2.102231E-2,1.1835854E-2,5.4645848E-2,-5.9656896E-2,-2.948882E-2,-5.009783E-2,2.2380268E-2,-2.4911307E-3,6.287676E-2,4.228947E-2,7.64814E-2,-5.0531537E-3,6.603665E-2,5.17728E-2,8.7501965E-2,4.971404E-2,8.332875E-2,9.2785984E-2,3.8874812E-2],"split_indices":[8,12,6,12,12,6,6,4,12,4,4,7,7,7,6,6,12,4,4,4,4,12,4,6,6,10,6,10,7,7,7,12,7,4,4,6,12,4,4,4,4,0,12,12,12,12,12,6,10,10,7,7,7,7,7,12,12,10,12,10,7,6,0,0,0,0,0,0,0,0,0,0,0,0,0,0,0,0,0,0,0,0,0,0,0,0,0,0,0,0,0,0,0,0,0,0,0,0,0,0,0,0,0,0,0,0,0,0,0,0,0,0,0,0,0,0,0,0,0,0,0,0,0,0,0],"split_type":[0,0,0,0,0,0,0,0,0,0,0,0,0,0,0,0,0,0,0,0,0,0,0,0,0,0,0,0,0,0,0,0,0,0,0,0,0,0,0,0,0,0,0,0,0,0,0,0,0,0,0,0,0,0,0,0,0,0,0,0,0,0,0,0,0,0,0,0,0,0,0,0,0,0,0,0,0,0,0,0,0,0,0,0,0,0,0,0,0,0,0,0,0,0,0,0,0,0,0,0,0,0,0,0,0,0,0,0,0,0,0,0,0,0,0,0,0,0,0,0,0,0,0,0,0],"sum_hessian":[2.1685667E5,1.5179723E5,6.5059438E4,7.992808E4,7.1869164E4,6.3520633E4,1.5388042E3,6.9638887E3,7.296419E4,2.4922082E4,4.694708E4,5.7502414E4,6.0182197E3,9.44322E2,5.944822E2,4.0937502E3,2.8701384E3,4.312648E4,2.9837707E4,2.4259482E4,6.625997E2,4.4972124E3,4.2449867E4,5.4633145E4,2.8692712E3,5.64461E3,3.736098E2,6.064372E2,3.3788483E2,3.728373E2,2.2164488E2,4.048503E3,4.524748E1,2.5140212E3,3.561173E2,4.78041E3,3.834607E4,2.8774057E4,1.0636495E3,1.2191921E4,1.2067561E4,4.403273E2,2.2227238E2,4.4133975E3,8.381496E1,4.230449E4,1.4537743E2,4.7579727E4,7.0534165E3,2.4726138E3,3.9665732E2,5.19471E3,4.4989978E2,2.4338737E2,1.3022243E2,5.5148224E2,5.495497E1,2.6821738E2,6.9667465E1,2.3649239E2,1.3634492E2,1.4874492E2,7.289996E1,3.004681E3,1.0438219E3,4.2414978E1,2.8324986E0,1.1673644E3,1.3466567E3,9.332245E1,2.6279486E2,4.67533E3,1.0507995E2,6.665859E3,3.168021E4,8.148683E3,2.0625375E4,3.991698E2,6.644797E2,6.2345566E3,5.9573643E3,1.1129164E4,9.3839703E2,9.398245E1,1.2828993E2,5.751247E2,3.838273E3,6.290747E1,2.090749E1,8.820683E3,3.348381E4,5.8299973E1,8.707746E1,3.6686426E4,1.08933E4,6.528324E3,5.250922E2,2.2881465E3,1.844674E2,3.4643484E2,5.0222473E1,3.802193E3,1.3925168E3,3.2531735E2,1.24582436E2,2.070024E2,3.638498E1,1.1024494E2,1.997749E1,4.338748E2,1.17607445E2,5.664997E0,4.9289974E1,2.4357988E2,2.4637487E1,2.5889986E1,4.3777477E1,2.109399E2,2.5552486E1,1.1320994E2,2.3134987E1,1.0155745E2,4.7187473E1,6.8987465E1,3.912498E0],"tree_param":{"num_deleted":"0","num_feature":"13","num_nodes":"125","size_leaf_vector":"1"}},{"base_weights":[-1.8882722E-3,5.7875186E-1,-1.7375269E0,6.9941074E-1,-9.3133636E-2,-1.7885425E0,2.8169483E-2,-9.324329E-2,7.5564456E-1,-1.8323555E0,-1.4494905E0,-4.3610334E-1,7.7280164E-1,7.567181E-1,7.15618E-1,-1.841526E0,-1.6576121E0,-1.526595E0,-2.8141388E-1,-8.849589E-1,3.4515408E-1,4.1357097E-1,1.3628479E0,7.4715626E-1,7.619706E-1,3.3740032E-2,7.284998E-1,-1.8518878E0,-1.7867467E0,-1.7391049E0,-1.2475821E0,-1.5885589E0,-8.1184006E-1,-6.7173404E-1,3.9822912E-1,-1.0047991E0,3.2983142E-1,1.3946196E-1,1.192273E0,6.0004853E-2,1.0993204E0,1.1950594E0,8.526616E-2,3.737169E-2,2.7583022E-2,4.129876E-2,3.8065623E-2,3.7938677E-2,3.5564292E-2,-9.2767164E-2,-9.0256825E-2,-9.029806E-2,-7.708597E-2,-8.85579E-2,-6.724385E-2,-6.837278E-2,-2.0008406E-2,-8.474389E-2,-6.506216E-2,-5.4106306E-2,-1.6268788E-2,-4.3730307E-2,2.5065312E-2,1.5345347E-2,6.382614E-2,-2.1984711E-2,-5.520643E-2,5.755925E-2,9.97989E-3,9.3331496E-4,6.227512E-2,8.486727E-2,5.0298195E-2,-3.4232286E-3,5.8983203E-2,4.765287E-2,8.346884E-2,6.2775396E-2,2.4497611E-2],"categories":[],"categories_nodes":[],"categories_segments":[],"categories_sizes":[],"default_left":[0,0,0,0,0,0,0,0,0,0,0,0,0,0,0,0,0,0,0,0,0,0,0,0,0,0,0,0,0,0,0,0,0,0,0,0,0,0,0,0,0,0,0,0,0,0,0,0,0,0,0,0,0,0,0,0,0,0,0,0,0,0,0,0,0,0,0,0,0,0,0,0,0,0,0,0,0,0,0],"id":1,"left_children":[1,3,5,7,-1,9,11,-1,13,15,17,19,21,23,25,27,29,31,33,35,37,39,41,43,45,-1,47,49,51,53,55,57,59,61,63,65,67,69,71,73,75,77,-1,-1,-1,-1,-1,-1,-1,-1,-1,-1,-1,-1,-1,-1,-1,-1,-1,-1,-1,-1,-1,-1,-1,-1,-1,-1,-1,-1,-1,-1,-1,-1,-1,-1,-1,-1,-1],"loss_changes":[2.1843817E5,4.784593E4,4.8944375E3,2.2318914E4,0E0,7.818125E2,5.2816223E2,0E0,5.9609375E0,7.1875E1,5.442754E2,3.3031055E2,1.23796936E2,6.8359375E0,1.5980225E0,2.190625E1,7.607715E1,2.4997363E2,9.9940735E1,8.7382996E1,5.979244E1,8.870252E1,1.0695374E1,2.4277344E0,3.3828125E0,0E0,1.0280762E0,2.671875E0,3.0617188E1,2.227002E1,3.9251404E1,1.572373E2,5.9425568E1,5.7323822E1,1.0652302E1,3.007898E1,5.594138E0,3.7119953E1,4.6063004E0,3.4980648E1,8.789001E0,5.8664093E0,0E0,0E0,0E0,0E0,0E0,0E0,0E0,0E0,0E0,0E0,0E0,0E0,0E0,0E0,0E0,0E0,0E0,0E0,0E0,0E0,0E0,0E0,0E0,0E0,0E0,0E0,0E0,0E0,0E0,0E0,0E0,0E0,0E0,0E0,0E0,0E0,0E0],"parents":[2147483647,0,0,1,1,2,2,3,3,5,5,6,6,8,8,9,9,10,10,11,11,12,12,13,13,14,14,15,15,16,16,17,17,18,18,19,19,20,20,21,21,22,22,23,23,24,24,26,26,27,27,28,28,29,29,30,30,31,31,32,32,33,33,34,34,35,35,36,36,37,37,38,38,39,39,40,40,41,41],"right_children":[2,4,6,8,-1,10,12,-1,14,16,18,20,22,24,26,28,30,32,34,36,38,40,42,44,46,-1,48,50,52,54,56,58,60,62,64,66,68,70,72,74,76,78,-1,-1,-1,-1,-1,-1,-1,-1,-1,-1,-1,-1,-1,-1,-1,-1,-1,-1,-1,-1,-1,-1,-1,-1,-1,-1,-1,-1,-1,-1,-1,-1,-1,-1,-1,-1,-1],"split_conditions":[2E0,7.5E1,8E0,7E1,-9.3133636E-2,6E0,9E0,-9.324329E-2,2.339768E4,2E0,2E0,1E0,1E1,8.34955E3,2.355986E4,5E0,5E0,1E0,7E0,1E0,2E0,1E0,1.1E1,-3.7026277E3,8.49269E3,3.3740032E-2,1.1691482E4,1E0,1E0,1E0,3E0,1E0,7E0,3E0,1E0,6.183343E2,1E0,1E0,6.453688E2,1E0,2E0,4.3831025E3,8.526616E-2,3.737169E-2,2.7583022E-2,4.129876E-2,3.8065623E-2,3.7938677E-2,3.5564292E-2,-9.2767164E-2,-9.0256825E-2,-9.029806E-2,-7.708597E-2,-8.85579E-2,-6.724385E-2,-6.837278E-2,-2.0008406E-2,-8.474389E-2,-6.506216E-2,-5.4106306E-2,-1.6268788E-2,-4.3730307E-2,2.5065312E-2,1.5345347E-2,6.382614E-2,-2.1984711E-2,-5.520643E-2,5.755925E-2,9.97989E-3,9.3331496E-4,6.227512E-2,8.486727E-2,5.0298195E-2,-3.4232286E-3,5.8983203E-2,4.765287E-2,8.346884E-2,6.2775396E-2,2.4497611E-2],"split_indices":[6,3,6,3,0,6,6,0,0,7,7,7,6,0,0,6,6,10,6,10,7,7,6,9,0,0,9,10,10,10,7,7,6,7,10,9,11,10,9,10,7,9,0,0,0,0,0,0,0,0,0,0,0,0,0,0,0,0,0,0,0,0,0,0,0,0,0,0,0,0,0,0,0,0,0,0,0,0,0],"split_type":[0,0,0,0,0,0,0,0,0,0,0,0,0,0,0,0,0,0,0,0,0,0,0,0,0,0,0,0,0,0,0,0,0,0,0,0,0,0,0,0,0,0,0,0,0,0,0,0,0,0,0,0,0,0,0,0,0,0,0,0,0,0,0,0,0,0,0,0,0,0,0,0,0,0,0,0,0,0,0],"sum_hessian":[2.1674953E5,1.6241569E5,5.433384E4,1.5476756E5,7.6481313E3,5.2808062E4,1.5257751E3,3.3204863E3,1.5144708E5,4.6761086E4,6.0469785E3,9.4006537E2,5.857097E2,1.474739E5,3.9731658E3,4.442037E4,2.340713E3,5.6722476E3,3.7473068E2,5.969609E2,3.431045E2,3.6511945E2,2.2059029E2,5.233834E4,9.513557E4,9.659231E2,3.0072427E3,3.7326996E4,7.0933755E3,1.9499266E3,3.9078632E2,5.218611E3,4.5363675E2,2.3803716E2,1.3669353E2,5.4351544E2,5.3445442E1,2.770078E2,6.609667E1,2.4162653E2,1.2349292E2,1.5106744E2,6.952285E1,5.2261324E4,7.701585E1,9.556205E2,9.4179945E4,1.0744938E3,1.9327488E3,3.4721992E4,2.605004E3,6.5716724E3,5.2170325E2,1.8000769E3,1.4984973E2,3.4181955E2,4.8966763E1,3.8055132E3,1.4130978E3,2.9082565E2,1.6281111E2,2.0315654E2,3.4880608E1,1.25041534E2,1.1651988E1,8.2064E1,4.6145145E2,6.2416162E0,4.7203827E1,2.5065007E2,2.635775E1,1.5625781E1,5.0470886E1,2.1759822E2,2.4028315E1,1.0040359E2,2.3089329E1,1.3842017E2,1.2647267E1],"tree_param":{"num_deleted":"0","num_feature":"13","num_nodes":"79","size_leaf_vector":"1"}},{"base_weights":[1.7122171E-3,4.494613E-1,-1.680352E0,-1.6785278E0,7.2330433E-1,-1.6980981E0,-1.3547616E0,-1.6955246E0,-1.3613923E0,4.9162477E-1,1.0356561E0,-1.7113615E0,-1.5253892E0,-1.4119989E0,-9.444313E-1,-1.7086818E0,-1.5224516E0,-8.851123E-1,-1.4171637E0,7.875644E-1,4.6143052E-1,1.0875428E0,-1.4944618E0,-1.7304391E0,-1.657222E0,-1.5859834E0,-1.354113E0,-1.443044E0,-1.0360618E0,-1.0192513E0,-1.5571068E-1,-1.7314109E0,-1.6437757E0,-1.599719E0,-1.3099195E0,-1.1336148E0,-1.0629269E-1,-1.4729277E0,-1.0074464E0,8.459537E-1,7.094069E-1,4.485375E-1,5.7962847E-1,8.4571105E-1,1.2576345E0,-1.2412086E0,-1.5326906E0,-1.6664617E0,-1.7380565E0,-1.5453801E0,-1.6714504E0,-1.5993811E0,-1.1003007E0,-9.8232687E-1,-1.4017844E0,-1.1253729E0,-1.4622424E0,-3.1288403E-1,-1.168484E0,-1.1073936E0,-5.5054915E-1,-3.3197737E-1,9.748832E-1,-8.384738E-2,-8.691256E-2,-8.2210995E-2,-4.1680182E-3,-5.085767E-2,-8.100932E-2,3.2466028E-2,-6.6275075E-2,-6.549678E-2,-2.7974589E-2,3.1001478E-2,-1.9883962E-2,-7.4001424E-2,9.04581E-3,-5.171E-2,1.6537108E-2,3.858886E-2,4.3316342E-2,3.6395367E-2,3.1562768E-2,2.4015725E-2,1.8835096E-2,2.681519E-2,3.0253043E-2,4.0373787E-2,4.5585092E-2,6.4986E-2,3.9371267E-2,-6.453117E-2,-4.1291886E-3,-7.89299E-2,-7.06841E-2,-8.3689146E-2,-6.96034E-2,-8.705597E-2,-8.1009336E-2,-7.758027E-2,-1.5945558E-2,-8.38357E-2,-7.398527E-2,-6.954052E-2,-8.118455E-2,2.6659632E-2,-6.1814606E-2,-6.199633E-2,-4.031722E-2,-7.078426E-2,-4.268079E-2,-6.592103E-2,-3.7944105E-2,-7.3706925E-2,-5.0119907E-2,-4.1992184E-2,1.865378E-2,-6.628706E-2,-4.512685E-2,-4.032686E-2,-6.125901E-2,-5.8920294E-2,-3.4716874E-3,2.845189E-2,-2.6021367E-2,2.8134233E-3,6.5757535E-2],"categories":[],"categories_nodes":[],"categories_segments":[],"categories_sizes":[],"default_left":[0,0,0,0,0,0,0,0,0,0,0,0,0,0,0,0,0,0,0,0,0,0,0,0,0,0,0,0,0,0,0,0,0,0,0,0,0,0,0,0,0,0,0,0,0,0,0,0,0,0,0,0,0,0,0,0,0,0,0,0,0,0,0,0,0,0,0,0,0,0,0,0,0,0,0,0,0,0,0,0,0,0,0,0,0,0,0,0,0,0,0,0,0,0,0,0,0,0,0,0,0,0,0,0,0,0,0,0,0,0,0,0,0,0,0,0,0,0,0,0,0,0,0,0,0,0,0],"id":2,"left_children":[1,3,5,7,9,11,13,15,17,19,21,23,25,27,29,31,33,35,37,39,41,43,45,47,49,51,53,55,57,59,61,63,65,67,69,71,73,75,77,79,81,83,85,87,89,91,93,95,97,99,101,103,105,107,109,111,113,115,117,119,121,123,125,-1,-1,-1,-1,-1,-1,-1,-1,-1,-1,-1,-1,-1,-1,-1,-1,-1,-1,-1,-1,-1,-1,-1,-1,-1,-1,-1,-1,-1,-1,-1,-1,-1,-1,-1,-1,-1,-1,-1,-1,-1,-1,-1,-1,-1,-1,-1,-1,-1,-1,-1,-1,-1,-1,-1,-1,-1,-1,-1,-1,-1,-1,-1,-1],"loss_changes":[1.6284902E5,9.9514234E4,2.6035156E2,1.0264844E2,1.0948352E4,9.611719E1,5.3965332E1,3.9472656E1,2.5189087E1,7.75875E2,8.460117E3,3.846875E1,2.985254E1,2.259668E1,1.7028381E1,2.246875E1,1.9490967E1,2.0591133E1,1.8838501E1,3.609619E1,1.1986914E2,2.5959844E3,1.0637207E1,1.15078125E1,1.4050781E1,1.3021973E1,1.3025024E1,9.968018E0,1.5053467E1,1.0372467E1,5.5877547E0,1.8164062E0,2.9638672E0,9.792725E0,1.1728882E1,7.4693146E0,5.9587126E0,9.43689E0,4.2702866E0,6.2790527E0,4.520996E0,1.6207812E2,8.214111E0,6.5052734E1,7.324336E2,9.920044E0,3.8930664E0,4.0390625E0,6.7109375E0,8.612793E0,6.8632812E0,8.94043E0,1.4918007E1,3.3382797E0,4.261841E0,6.984665E0,8.327393E0,9.814772E0,4.4797363E0,6.905884E0,1.3229522E1,4.303005E0,1.1190364E0,0E0,0E0,0E0,0E0,0E0,0E0,0E0,0E0,0E0,0E0,0E0,0E0,0E0,0E0,0E0,0E0,0E0,0E0,0E0,0E0,0E0,0E0,0E0,0E0,0E0,0E0,0E0,0E0,0E0,0E0,0E0,0E0,0E0,0E0,0E0,0E0,0E0,0E0,0E0,0E0,0E0,0E0,0E0,0E0,0E0,0E0,0E0,0E0,0E0,0E0,0E0,0E0,0E0,0E0,0E0,0E0,0E0,0E0,0E0,0E0,0E0,0E0,0E0,0E0],"parents":[2147483647,0,0,1,1,2,2,3,3,4,4,5,5,6,6,7,7,8,8,9,9,10,10,11,11,12,12,13,13,14,14,15,15,16,16,17,17,18,18,19,19,20,20,21,21,22,22,23,23,24,24,25,25,26,26,27,27,28,28,29,29,30,30,31,31,32,32,33,33,34,34,35,35,36,36,37,37,38,38,39,39,40,40,41,41,42,42,43,43,44,44,45,45,46,46,47,47,48,48,49,49,50,50,51,51,52,52,53,53,54,54,55,55,56,56,57,57,58,58,59,59,60,60,61,61,62,62],"right_children":[2,4,6,8,10,12,14,16,18,20,22,24,26,28,30,32,34,36,38,40,42,44,46,48,50,52,54,56,58,60,62,64,66,68,70,72,74,76,78,80,82,84,86,88,90,92,94,96,98,100,102,104,106,108,110,112,114,116,118,120,122,124,126,-1,-1,-1,-1,-1,-1,-1,-1,-1,-1,-1,-1,-1,-1,-1,-1,-1,-1,-1,-1,-1,-1,-1,-1,-1,-1,-1,-1,-1,-1,-1,-1,-1,-1,-1,-1,-1,-1,-1,-1,-1,-1,-1,-1,-1,-1,-1,-1,-1,-1,-1,-1,-1,-1,-1,-1,-1,-1,-1,-1,-1,-1,-1,-1],"split_conditions":[7.5E1,7E1,2E0,2E0,9.2921394E-1,1E0,3E0,1E0,4.460662E2,1.8310039E-1,2.096855E0,1E0,1E0,1E0,4E0,1E0,1E0,3E0,3E0,1.11617E-1,8.6229336E-1,1.1831173E0,3.05331E3,6.5834515E2,6.8901E2,4E0,7.1671E2,2.8148822E2,6.9996576E2,3E0,1E0,6.8901E2,1.315391E4,1.6746237E2,1.2468E2,5.370849E2,1.29428E-1,7.6226133E-1,6.53095E-1,5.41971E3,1.6996609E-1,6.817059E-1,8.862816E-1,1.0749129E0,1.8187193E0,2.9318093E3,1.81087E4,4E0,4E0,5E0,4E0,6.2829E2,2.0705635E2,2.2125836E-1,4E0,2E0,4E0,5.06305E2,1.5E1,1.0657255E3,2.34083E-1,6.453688E2,1.3804174E3,-8.384738E-2,-8.691256E-2,-8.2210995E-2,-4.1680182E-3,-5.085767E-2,-8.100932E-2,3.2466028E-2,-6.6275075E-2,-6.549678E-2,-2.7974589E-2,3.1001478E-2,-1.9883962E-2,-7.4001424E-2,9.04581E-3,-5.171E-2,1.6537108E-2,3.858886E-2,4.3316342E-2,3.6395367E-2,3.1562768E-2,2.4015725E-2,1.8835096E-2,2.681519E-2,3.0253043E-2,4.0373787E-2,4.5585092E-2,6.4986E-2,3.9371267E-2,-6.453117E-2,-4.1291886E-3,-7.89299E-2,-7.06841E-2,-8.3689146E-2,-6.96034E-2,-8.705597E-2,-8.1009336E-2,-7.758027E-2,-1.5945558E-2,-8.38357E-2,-7.398527E-2,-6.954052E-2,-8.118455E-2,2.6659632E-2,-6.1814606E-2,-6.199633E-2,-4.031722E-2,-7.078426E-2,-4.268079E-2,-6.592103E-2,-3.7944105E-2,-7.3706925E-2,-5.0119907E-2,-4.1992184E-2,1.865378E-2,-6.628706E-2,-4.512685E-2,-4.032686E-2,-6.125901E-2,-5.8920294E-2,-3.4716874E-3,2.845189E-2,-2.6021367E-2,2.8134233E-3,6.5757535E-2],"split_indices":[3,3,7,7,4,10,7,10,9,4,4,7,7,10,7,7,7,11,7,4,4,4,0,0,0,5,0,9,9,11,10,0,0,9,0,0,4,4,4,0,4,4,4,4,4,0,0,5,5,5,5,0,9,4,5,5,5,9,2,9,4,9,0,0,0,0,0,0,0,0,0,0,0,0,0,0,0,0,0,0,0,0,0,0,0,0,0,0,0,0,0,0,0,0,0,0,0,0,0,0,0,0,0,0,0,0,0,0,0,0,0,0,0,0,0,0,0,0,0,0,0,0,0,0,0,0,0],"split_type":[0,0,0,0,0,0,0,0,0,0,0,0,0,0,0,0,0,0,0,0,0,0,0,0,0,0,0,0,0,0,0,0,0,0,0,0,0,0,0,0,0,0,0,0,0,0,0,0,0,0,0,0,0,0,0,0,0,0,0,0,0,0,0,0,0,0,0,0,0,0,0,0,0,0,0,0,0,0,0,0,0,0,0,0,0,0,0,0,0,0,0,0,0,0,0,0,0,0,0,0,0,0,0,0,0,0,0,0,0,0,0,0,0,0,0,0,0,0,0,0,0,0,0,0,0,0,0],"sum_hessian":[2.1622397E5,1.7076794E5,4.545603E4,1.9469389E4,1.5129855E5,4.3102527E4,2.353501E3,1.8474885E4,9.945021E2,8.686848E4,6.4430074E4,4.002022E4,3.082309E3,2.0632546E3,2.902463E2,1.7161387E4,1.3134987E3,1.0601552E2,8.884866E2,8.0401704E3,7.8828305E4,6.3135875E4,1.2941982E3,2.9569576E4,1.0450645E4,2.2707139E3,8.115952E2,1.9032449E3,1.6000974E2,2.6483142E2,2.5414871E1,1.269139E4,4.469998E3,9.585021E2,3.5499664E2,8.00257E1,2.5989819E1,7.797631E2,1.0872346E2,4.5964604E3,3.4437102E3,7.1079734E4,7.7485728E3,2.6072574E4,3.70633E4,1.7412788E2,1.1200703E3,3.169507E3,2.6400068E4,1.1918356E3,9.258809E3,2.2075256E3,6.3188194E1,9.46936E1,7.169016E2,1.11864365E2,1.7913805E3,2.5285355E1,1.3472438E2,2.2176457E2,4.306685E1,2.259806E1,2.8168106E0,1.4435555E3,1.1247834E4,4.468672E3,1.3258698E0,3.425298E1,9.242491E2,2.480134E0,3.525165E2,6.024273E1,1.9782974E1,7.1183825E0,1.8871435E1,7.765341E2,3.228953E0,1.0681514E2,1.9083158E0,9.988015E2,3.597659E3,2.7778164E3,6.658938E2,4.9276312E4,2.180342E4,2.8742744E3,4.8742983E3,1.6516244E4,9.556331E3,3.401691E4,3.0463928E3,1.6689594E2,7.2319536E0,7.9942773E2,3.2064258E2,3.0821724E3,8.7334595E1,2.5717996E4,6.8207306E2,1.1855529E3,6.282745E0,9.0039E3,2.5490842E2,2.3651465E2,1.9710109E3,4.631773E0,5.8556423E1,3.5980427E1,5.8713173E1,6.976283E2,1.9273369E1,7.156849E1,4.029588E1,1.7440558E3,4.732466E1,1.4173119E1,1.1112236E1,8.215834E1,5.2566048E1,6.460207E1,1.571625E2,1.8055307E1,2.501154E1,3.5595598E0,1.9038502E1,1.0763555E0,1.7404552E0],"tree_param":{"num_deleted":"0","num_feature":"13","num_nodes":"127","size_leaf_vector":"1"}},{"base_weights":[-2.094018E-3,6.798727E-1,-1.6121166E0,-1.22006815E-2,1.3840468E0,-1.6264554E0,-1.4269078E0,1.3384674E0,-1.513197E-1,9.028273E-1,1.6776845E0,-1.5418656E0,-1.6374193E0,-1.2273173E0,-1.4572847E0,1.0564386E0,1.7458454E0,-4.3389627E-1,3.1417927E-1,9.737514E-1,-1.6673813E0,9.512039E-1,1.7556821E0,-1.5509269E0,-1.4370139E0,-1.6422867E0,-1.6013921E0,-1.4712139E0,-1.1259507E0,-1.4814937E0,-1.3043259E0,1.2562972E0,5.5453956E-1,8.9385234E-2,1.4767693E0,-1.4459813E-1,-7.878452E-1,4.172086E-1,-1.220227E0,6.1577964E-1,1.3349391E0,-1.8924654E0,-1.20334E0,9.948452E-1,-1.2824589E0,1.7656561E0,-1.100947E0,-1.5518177E0,-5.167769E-1,-1.4497014E0,-3.103704E-1,-1.6578059E0,-1.6341536E0,-1.6017001E0,-1.1073881E-2,-1.5556517E0,-1.0680236E0,-1.1727775E0,-7.0683724E-1,-1.4832231E0,6.514638E-1,-1.1377112E0,-1.3522681E0,6.388969E-2,-8.086643E-2,4.201019E-2,-8.296677E-3,3.406615E-2,8.848358E-2,2.5304694E-2,-1.4118669E-2,-4.9836487E-2,2.7459203E-3,4.0308275E-4,2.9319048E-2,-7.288905E-2,1.09488135E-2,9.7846715E-3,3.2202557E-2,6.99062E-2,4.4257153E-2,-9.745787E-2,-8.852645E-2,-7.459895E-2,-4.8696067E-2,2.5630772E-2,5.3293623E-2,-6.7753874E-2,9.4966806E-4,8.0834106E-2,9.024356E-2,-1.550017E-2,-8.1155725E-2,-7.830613E-2,-7.5688146E-2,4.237331E-2,-5.0917298E-2,-7.277375E-2,-3.133322E-2,4.430948E-2,-4.923496E-2,-2.942509E-2,-8.290313E-2,-8.189058E-2,-8.049371E-2,-8.047121E-2,-7.631758E-2,-2.7983073E-2,-7.839372E-2,-7.0482604E-2,-1.6134521E-2,-5.000248E-2,-6.35495E-2,-4.9413133E-2,4.0746436E-2,-7.419013E-2,9.808297E-3,5.660196E-2,-3.8496417E-3,-2.8690726E-2,-5.9461653E-2,-6.576272E-2,-7.7972196E-2],"categories":[],"categories_nodes":[],"categories_segments":[],"categories_sizes":[],"default_left":[0,0,0,0,0,0,0,0,0,0,0,0,0,0,0,0,0,0,0,0,0,0,0,0,0,0,0,0,0,0,0,0,0,0,0,0,0,0,0,0,0,0,0,0,0,0,0,0,0,0,0,0,0,0,0,0,0,0,0,0,0,0,0,0,0,0,0,0,0,0,0,0,0,0,0,0,0,0,0,0,0,0,0,0,0,0,0,0,0,0,0,0,0,0,0,0,0,0,0,0,0,0,0,0,0,0,0,0,0,0,0,0,0,0,0,0,0,0,0,0,0,0,0],"id":3,"left_children":[1,3,5,7,9,11,13,15,17,19,21,23,25,27,29,31,33,35,37,39,41,43,45,47,49,51,53,55,57,59,61,63,65,-1,67,69,71,73,75,77,79,81,83,85,87,89,91,93,95,97,99,101,103,105,-1,107,109,111,113,115,117,119,121,-1,-1,-1,-1,-1,-1,-1,-1,-1,-1,-1,-1,-1,-1,-1,-1,-1,-1,-1,-1,-1,-1,-1,-1,-1,-1,-1,-1,-1,-1,-1,-1,-1,-1,-1,-1,-1,-1,-1,-1,-1,-1,-1,-1,-1,-1,-1,-1,-1,-1,-1,-1,-1,-1,-1,-1,-1,-1,-1,-1],"loss_changes":[2.3614797E5,7.3627625E4,1.6760938E2,1.4317693E4,1.0580125E4,5.25625E1,2.6140625E1,8.1566016E2,9.087056E3,5.175115E3,2.6335312E3,4.2617188E0,6.59375E0,1.3543823E1,1.2852539E1,4.2131396E2,3.0128906E1,4.4016377E3,4.125884E3,3.5701895E3,7.7363525E1,4.41021E2,1.1984922E3,4.979492E0,7.512451E0,3.1328125E0,2.3203125E0,4.3728333E0,7.7785034E0,1.3653809E1,2.8864136E0,1.8788818E2,2.47108E2,0E0,9.138635E1,2.1208042E3,3.4034658E3,1.6926182E3,5.6176855E2,1.6463867E2,3.8945508E2,8.630371E-2,1.52204895E1,1.5102441E2,8.237335E0,2.415625E2,6.009958E1,1.0419922E0,5.5843906E0,1.7038574E0,6.9043784E0,3.3710938E0,6.25E-2,1.2060547E0,0E0,8.800049E-1,8.17252E0,5.39563E0,2.0759987E1,3.6362305E0,1.3059202E0,3.096817E0,1.2069092E0,0E0,0E0,0E0,0E0,0E0,0E0,0E0,0E0,0E0,0E0,0E0,0E0,0E0,0E0,0E0,0E0,0E0,0E0,0E0,0E0,0E0,0E0,0E0,0E0,0E0,0E0,0E0,0E0,0E0,0E0,0E0,0E0,0E0,0E0,0E0,0E0,0E0,0E0,0E0,0E0,0E0,0E0,0E0,0E0,0E0,0E0,0E0,0E0,0E0,0E0,0E0,0E0,0E0,0E0,0E0,0E0,0E0,0E0,0E0,0E0],"parents":[2147483647,0,0,1,1,2,2,3,3,4,4,5,5,6,6,7,7,8,8,9,9,10,10,11,11,12,12,13,13,14,14,15,15,16,16,17,17,18,18,19,19,20,20,21,21,22,22,23,23,24,24,25,25,26,26,27,27,28,28,29,29,30,30,31,31,32,32,34,34,35,35,36,36,37,37,38,38,39,39,40,40,41,41,42,42,43,43,44,44,45,45,46,46,47,47,48,48,49,49,50,50,51,51,52,52,53,53,55,55,56,56,57,57,58,58,59,59,60,60,61,61,62,62],"right_children":[2,4,6,8,10,12,14,16,18,20,22,24,26,28,30,32,34,36,38,40,42,44,46,48,50,52,54,56,58,60,62,64,66,-1,68,70,72,74,76,78,80,82,84,86,88,90,92,94,96,98,100,102,104,106,-1,108,110,112,114,116,118,120,122,-1,-1,-1,-1,-1,-1,-1,-1,-1,-1,-1,-1,-1,-1,-1,-1,-1,-1,-1,-1,-1,-1,-1,-1,-1,-1,-1,-1,-1,-1,-1,-1,-1,-1,-1,-1,-1,-1,-1,-1,-1,-1,-1,-1,-1,-1,-1,-1,-1,-1,-1,-1,-1,-1,-1,-1,-1,-1,-1,-1],"split_conditions":[2.04953E-1,6.3740534E-1,1E0,1.21718E-1,1.0144646E0,6.8901E2,7.4521E2,9.937968E-1,4.62961E-1,1.7342448E0,4.1323414E-1,5.36307E-1,4.38171E-1,1.55192E-1,4.21896E-1,9.3494E-2,9.3494E-2,7.77272E-1,1.4146624E0,7.8466636E-1,2.4271414E0,2.1524334E0,2.4271414E0,7.9495376E-1,6.183343E2,1.99128E-1,1.474656E4,4.358143E-1,5.27023E-1,8.3722997E-1,1.2617999E1,7.5E1,6.817059E-1,8.9385234E-2,1.2748784E0,3.54237E-1,1.375663E0,5.120608E-1,6.17477E-1,8.3393E-2,1.3932828E0,2.096855E0,7.6767E-1,1.0877357E0,2.259043E4,1.2783964E0,1.1601572E0,3.32229E-1,7E0,6.833866E-1,5.633564E-1,2.0705635E2,5.27023E-1,6.4436793E-1,-1.1073881E-2,1.055964E0,4.5424904E1,2.52406E-1,5.12896E-1,1.394682E4,1.95687E3,7.8994E-2,4.25109E3,6.388969E-2,-8.086643E-2,4.201019E-2,-8.296677E-3,3.406615E-2,8.848358E-2,2.5304694E-2,-1.4118669E-2,-4.9836487E-2,2.7459203E-3,4.0308275E-4,2.9319048E-2,-7.288905E-2,1.09488135E-2,9.7846715E-3,3.2202557E-2,6.99062E-2,4.4257153E-2,-9.745787E-2,-8.852645E-2,-7.459895E-2,-4.8696067E-2,2.5630772E-2,5.3293623E-2,-6.7753874E-2,9.4966806E-4,8.0834106E-2,9.024356E-2,-1.550017E-2,-8.1155725E-2,-7.830613E-2,-7.5688146E-2,4.237331E-2,-5.0917298E-2,-7.277375E-2,-3.133322E-2,4.430948E-2,-4.923496E-2,-2.942509E-2,-8.290313E-2,-8.189058E-2,-8.049371E-2,-8.047121E-2,-7.631758E-2,-2.7983073E-2,-7.839372E-2,-7.0482604E-2,-1.6134521E-2,-5.000248E-2,-6.35495E-2,-4.9413133E-2,4.0746436E-2,-7.419013E-2,9.808297E-3,5.660196E-2,-3.8496417E-3,-2.8690726E-2,-5.9461653E-2,-6.576272E-2,-7.7972196E-2],"split_indices":[8,12,10,12,12,0,0,4,12,4,4,4,12,12,12,12,12,4,4,4,4,12,4,12,9,4,0,4,4,4,8,3,4,0,4,4,4,4,12,4,4,4,12,12,0,12,12,12,2,12,4,9,4,12,0,8,8,12,12,0,0,4,0,0,0,0,0,0,0,0,0,0,0,0,0,0,0,0,0,0,0,0,0,0,0,0,0,0,0,0,0,0,0,0,0,0,0,0,0,0,0,0,0,0,0,0,0,0,0,0,0,0,0,0,0,0,0,0,0,0,0,0,0],"split_type":[0,0,0,0,0,0,0,0,0,0,0,0,0,0,0,0,0,0,0,0,0,0,0,0,0,0,0,0,0,0,0,0,0,0,0,0,0,0,0,0,0,0,0,0,0,0,0,0,0,0,0,0,0,0,0,0,0,0,0,0,0,0,0,0,0,0,0,0,0,0,0,0,0,0,0,0,0,0,0,0,0,0,0,0,0,0,0,0,0,0,0,0,0,0,0,0,0,0,0,0,0,0,0,0,0,0,0,0,0,0,0,0,0,0,0,0,0,0,0,0,0,0,0],"sum_hessian":[2.1507256E5,1.510795E5,6.3993055E4,7.619492E4,7.4884586E4,5.9387492E4,4.6055645E3,7.114415E3,6.908051E4,2.8379594E4,4.650499E4,6.8304233E3,5.2557066E4,6.1382904E2,3.9917356E3,4.2061094E3,2.908306E3,4.2986215E4,2.6094291E4,2.7618102E4,7.614919E2,4.5101323E3,4.1994855E4,6.2743965E3,5.560269E2,4.626249E4,6.2945796E3,1.762479E2,4.3758112E2,3.4387874E3,5.529484E2,3.0071458E3,1.1989635E3,2.5118948E3,3.9641122E2,2.365409E4,1.9332127E4,2.445309E4,1.6412004E3,1.387216E4,1.3745942E4,5.1069833E2,2.5079356E2,4.424246E3,8.588637E1,4.184912E4,1.4573608E2,6.2684966E3,5.8999534E0,5.4955145E2,6.475445E0,1.5837941E4,3.0424547E4,6.2930146E3,1.5650007E0,1.4336539E2,3.2882507E1,3.9198688E2,4.559425E1,3.436306E3,2.4813967E0,1.2908095E2,4.238675E2,2.9853687E3,2.1777046E1,8.5843274E2,3.405308E2,1.0757948E2,2.8883173E2,4.1328037E3,1.9521287E4,1.5492119E4,3.8400068E3,7.1534253E3,1.7299664E4,1.4086729E3,2.3252763E2,8.752194E2,1.299694E4,1.2050981E4,1.6949607E3,3.3838687E2,1.7231146E2,1.0862533E2,1.4216824E2,5.690404E2,3.8552058E3,8.130831E1,4.578056E0,8.729375E3,3.3119746E4,5.8586674E1,8.714941E1,4.5267393E3,1.7417568E3,1.400643E0,4.4993105E0,5.4496027E2,4.591196E0,2.220719E0,4.2547255E0,4.3514066E0,1.583359E4,2.638308E4,4.0414673E3,5.689424E3,6.0359076E2,2.3052785E0,1.4106012E2,2.1936472E1,1.0946036E1,1.4614378E2,2.4584308E2,3.8774185E1,6.8200626E0,3.435237E3,1.0687784E0,1.1612656E0,1.3201311E0,1.1822551E1,1.172584E2,3.6585336E2,5.801414E1],"tree_param":{"num_deleted":"0","num_feature":"13","num_nodes":"123","size_leaf_vector":"1"}},{"base_weights":[-8.430033E-4,6.5021735E-1,-1.5487984E0,6.008172E-2,1.4048004E0,-1.5657599E0,-1.237775E0,1.326103E0,-4.6558525E-2,9.2751247E-1,1.6113614E0,-1.5788633E0,-1.3971934E0,-1.2934806E0,-8.3937514E-1,1.0634974E0,1.6875306E0,-3.7451565E-1,4.2308098E-1,9.936277E-1,-1.5701759E0,9.240489E-1,1.6842997E0,-1.5992814E0,-1.5212803E0,-1.4614016E0,-1.2198274E0,-1.3248982E0,-9.0352917E-1,-2.9205528E-1,-9.21626E-1,1.0859319E0,-1.5696158E0,1.7124463E0,1.460556E0,-9.969633E-2,-7.1810275E-1,4.960614E-1,-1.6759115E0,5.94757E-1,1.3103707E0,-9.1856085E-2,-1.0901519E0,9.6508914E-1,-1.305832E0,1.6937436E0,-1.1048473E0,-1.603075E0,-1.4573793E0,-1.5249515E0,-1.2209283E0,-1.4715601E0,-1.0822575E0,-8.6663866E-1,-1.2689617E0,-1.0721059E0,-1.3565129E0,-1.0610456E0,-6.3399076E-1,-4.745929E-1,5.164507E-1,-9.8347664E-1,-1.8364024E-1,6.0297348E-2,3.2291505E-2,-8.133676E-2,-3.225468E-2,8.638581E-2,8.089213E-2,-8.656102E-2,7.564274E-2,2.36979E-2,-1.1042266E-2,-4.5529347E-2,2.1941175E-3,7.778724E-3,3.2708243E-2,-7.6440245E-2,-8.737039E-2,5.9067043E-3,3.213349E-2,6.896887E-2,1.0972477E-2,-6.6247664E-2,-4.075535E-2,2.6824815E-2,5.143847E-2,-7.218054E-2,-4.08579E-2,7.7294916E-2,8.6638846E-2,-1.9726712E-2,-8.357433E-2,-7.7521615E-2,-8.046778E-2,-6.328955E-2,-7.4130416E-2,-7.145136E-2,-7.6856114E-2,-4.9357545E-2,-6.6684194E-2,-6.7336164E-2,-7.471043E-2,8.691455E-3,-5.8738697E-2,-5.135378E-2,-9.316619E-3,-6.4507715E-2,-2.5730459E-2,-5.5130567E-2,6.3291094E-3,-6.803198E-2,-2.265445E-2,-3.798473E-2,-5.9196472E-2,4.767302E-2,-3.5320718E-2,-3.4599863E-2,6.5970817E-3,-1.55969355E-2,4.5569655E-2,-5.2065175E-2,-1.3514179E-2,2.7831426E-2,-4.4479087E-2],"categories":[],"categories_nodes":[],"categories_segments":[],"categories_sizes":[],"default_left":[0,0,0,0,0,0,0,0,0,0,0,0,0,0,0,0,0,0,0,0,0,0,0,0,0,0,0,0,0,0,0,0,0,0,0,0,0,0,0,0,0,0,0,0,0,0,0,0,0,0,0,0,0,0,0,0,0,0,0,0,0,0,0,0,0,0,0,0,0,0,0,0,0,0,0,0,0,0,0,0,0,0,0,0,0,0,0,0,0,0,0,0,0,0,0,0,0,0,0,0,0,0,0,0,0,0,0,0,0,0,0,0,0,0,0,0,0,0,0,0,0,0,0,0,0],"id":4,"left_children":[1,3,5,7,9,11,13,15,17,19,21,23,25,27,29,31,33,35,37,39,41,43,45,47,49,51,53,55,57,59,61,63,65,67,69,71,73,75,77,79,81,-1,83,85,87,89,91,93,95,97,99,101,103,105,107,109,111,113,115,117,119,121,123,-1,-1,-1,-1,-1,-1,-1,-1,-1,-1,-1,-1,-1,-1,-1,-1,-1,-1,-1,-1,-1,-1,-1,-1,-1,-1,-1,-1,-1,-1,-1,-1,-1,-1,-1,-1,-1,-1,-1,-1,-1,-1,-1,-1,-1,-1,-1,-1,-1,-1,-1,-1,-1,-1,-1,-1,-1,-1,-1,-1,-1,-1],"loss_changes":[2.1548272E5,6.702259E4,3.32E2,1.1402717E4,6.510461E3,1.3039062E2,7.167334E1,6.2097656E2,1.1998148E4,3.2966152E3,2.3094375E3,6.3046875E1,4.7623047E1,3.4018555E1,1.7963806E1,2.2635742E2,1.3104492E1,4.3310205E3,4.907472E3,2.4552246E3,6.398352E1,4.0620728E2,1.0996016E3,1.978125E1,1.4234375E1,1.0654785E1,1.9014893E1,1.9788086E1,8.56015E0,8.270376E0,1.5870056E1,1.984253E2,6.688309E-1,7.890625E-1,4.9317383E1,1.7712976E3,2.9897168E3,1.6662852E3,8.650391E0,1.9645752E2,8.153281E2,0E0,1.0963593E1,1.1805078E2,4.2330933E0,2.3702344E2,5.6187485E1,1.0734375E1,3.3483887E0,1.4636719E1,3.4621277E0,6.7368164E0,1.0286621E1,1.5603218E1,1.55686035E1,1.1117889E1,8.176758E0,4.12825E0,1.01808815E1,6.009779E0,3.717789E0,1.3089966E1,1.5347996E1,0E0,0E0,0E0,0E0,0E0,0E0,0E0,0E0,0E0,0E0,0E0,0E0,0E0,0E0,0E0,0E0,0E0,0E0,0E0,0E0,0E0,0E0,0E0,0E0,0E0,0E0,0E0,0E0,0E0,0E0,0E0,0E0,0E0,0E0,0E0,0E0,0E0,0E0,0E0,0E0,0E0,0E0,0E0,0E0,0E0,0E0,0E0,0E0,0E0,0E0,0E0,0E0,0E0,0E0,0E0,0E0,0E0,0E0,0E0,0E0,0E0,0E0],"parents":[2147483647,0,0,1,1,2,2,3,3,4,4,5,5,6,6,7,7,8,8,9,9,10,10,11,11,12,12,13,13,14,14,15,15,16,16,17,17,18,18,19,19,20,20,21,21,22,22,23,23,24,24,25,25,26,26,27,27,28,28,29,29,30,30,31,31,32,32,33,33,34,34,35,35,36,36,37,37,38,38,39,39,40,40,42,42,43,43,44,44,45,45,46,46,47,47,48,48,49,49,50,50,51,51,52,52,53,53,54,54,55,55,56,56,57,57,58,58,59,59,60,60,61,61,62,62],"right_children":[2,4,6,8,10,12,14,16,18,20,22,24,26,28,30,32,34,36,38,40,42,44,46,48,50,52,54,56,58,60,62,64,66,68,70,72,74,76,78,80,82,-1,84,86,88,90,92,94,96,98,100,102,104,106,108,110,112,114,116,118,120,122,124,-1,-1,-1,-1,-1,-1,-1,-1,-1,-1,-1,-1,-1,-1,-1,-1,-1,-1,-1,-1,-1,-1,-1,-1,-1,-1,-1,-1,-1,-1,-1,-1,-1,-1,-1,-1,-1,-1,-1,-1,-1,-1,-1,-1,-1,-1,-1,-1,-1,-1,-1,-1,-1,-1,-1,-1,-1,-1,-1,-1,-1,-1],"split_conditions":[2.04953E-1,7.1248865E-1,2E0,1.13417E-1,1.0144646E0,1E0,3E0,9.937968E-1,4.77569E-1,1.7342448E0,4.09099E-1,1E0,1E0,1E0,6.8901E2,7.5E1,9.3494E-2,7.77272E-1,1.7002351E0,7.1334046E-1,2.4271414E0,2.1524334E0,2.4271414E0,4E0,6.3740534E-1,4E0,7.1671E2,6.5834515E2,2.98997E-1,3E0,1E0,9.3494E-2,2E0,8.0251E-2,1.0224108E0,3.54237E-1,1.375663E0,5.27023E-1,5.39476E-1,9.1946E-2,1.4146624E0,-9.1856085E-2,1.299858E4,1.0877357E0,2.658238E0,1.2783964E0,1.1953187E0,6.5834515E2,6.8901E2,6.8901E2,1.92754E-1,8.277E2,4.717867E2,4.05174E-1,4E0,4E0,1.2260806E2,1.3014888E3,3.06606E-1,4.1323414E-1,4.3732343E2,4E0,2.1070242E3,6.0297348E-2,3.2291505E-2,-8.133676E-2,-3.225468E-2,8.638581E-2,8.089213E-2,-8.656102E-2,7.564274E-2,2.36979E-2,-1.1042266E-2,-4.5529347E-2,2.1941175E-3,7.778724E-3,3.2708243E-2,-7.6440245E-2,-8.737039E-2,5.9067043E-3,3.213349E-2,6.896887E-2,1.0972477E-2,-6.6247664E-2,-4.075535E-2,2.6824815E-2,5.143847E-2,-7.218054E-2,-4.08579E-2,7.7294916E-2,8.6638846E-2,-1.9726712E-2,-8.357433E-2,-7.7521615E-2,-8.046778E-2,-6.328955E-2,-7.4130416E-2,-7.145136E-2,-7.6856114E-2,-4.9357545E-2,-6.6684194E-2,-6.7336164E-2,-7.471043E-2,8.691455E-3,-5.8738697E-2,-5.135378E-2,-9.316619E-3,-6.4507715E-2,-2.5730459E-2,-5.5130567E-2,6.3291094E-3,-6.803198E-2,-2.265445E-2,-3.798473E-2,-5.9196472E-2,4.767302E-2,-3.5320718E-2,-3.4599863E-2,6.5970817E-3,-1.55969355E-2,4.5569655E-2,-5.2065175E-2,-1.3514179E-2,2.7831426E-2,-4.4479087E-2],"split_indices":[8,12,7,12,12,10,7,4,12,4,4,7,7,10,0,3,12,4,4,4,4,12,4,5,12,5,0,0,12,11,10,12,7,12,4,4,4,4,12,4,4,0,0,12,12,12,12,0,0,0,4,0,0,12,5,5,8,0,12,4,0,7,0,0,0,0,0,0,0,0,0,0,0,0,0,0,0,0,0,0,0,0,0,0,0,0,0,0,0,0,0,0,0,0,0,0,0,0,0,0,0,0,0,0,0,0,0,0,0,0,0,0,0,0,0,0,0,0,0,0,0,0,0,0,0],"split_type":[0,0,0,0,0,0,0,0,0,0,0,0,0,0,0,0,0,0,0,0,0,0,0,0,0,0,0,0,0,0,0,0,0,0,0,0,0,0,0,0,0,0,0,0,0,0,0,0,0,0,0,0,0,0,0,0,0,0,0,0,0,0,0,0,0,0,0,0,0,0,0,0,0,0,0,0,0,0,0,0,0,0,0,0,0,0,0,0,0,0,0,0,0,0,0,0,0,0,0,0,0,0,0,0,0,0,0,0,0,0,0,0,0,0,0,0,0,0,0,0,0,0,0,0,0],"sum_hessian":[2.1381033E5,1.5050814E5,6.33022E4,8.445759E4,6.605054E4,6.0024746E4,3.277451E3,6.56051E3,7.7897086E4,1.9952656E4,4.6097887E4,5.5687562E4,4.3371836E3,2.873431E3,4.0402008E2,3.8020012E3,2.7585088E3,4.5867348E4,3.2029734E4,1.9438703E4,5.139518E2,4.4239316E3,4.1673957E4,4.1090617E4,1.4596945E4,3.1790857E3,1.1580978E3,2.6569666E3,2.1646442E2,5.337811E1,3.5064197E2,3.7704639E3,3.1537321E1,2.479755E3,2.7875394E2,2.5484652E4,2.0382695E4,3.0954242E4,1.0754928E3,8.605178E3,1.0833525E4,3.284632E2,1.8548857E2,4.344539E3,7.939262E1,4.153372E4,1.4023769E2,4.0010676E4,1.079943E3,1.4416657E4,1.8028772E2,3.0933245E3,8.576123E1,1.4371046E2,1.0143873E3,2.9922922E2,2.3577373E3,1.3476947E2,8.169493E1,4.388347E1,9.4946375E0,3.232202E2,2.7421768E1,2.9612075E3,8.092565E2,2.8986895E1,2.5504253E0,2.1202656E3,3.5948907E2,3.9763489E0,2.747776E2,4.44311E3,2.1041543E4,1.6272041E4,4.110656E3,9.816244E3,2.1137998E4,3.5907095E2,7.164219E2,7.863414E2,7.8188364E3,1.0188766E4,6.447599E2,9.800559E1,8.748299E1,5.6322675E2,3.781312E3,6.0407066E1,1.8985554E1,8.683629E3,3.285009E4,6.298227E1,7.725542E1,4.291194E3,3.571948E4,1.3161713E2,9.483258E2,1.6365598E3,1.2780098E4,6.1836422E1,1.184513E2,4.8430884E2,2.6090156E3,5.823071E0,7.993816E1,1.15874115E2,2.7836353E1,9.8597723E2,2.841012E1,2.918813E2,7.3479276E0,2.346513E3,1.122432E1,4.111771E1,9.365177E1,3.0337243E0,7.866121E1,3.2200665E1,1.1682807E1,3.1331148E0,6.3615227E0,2.9855295E2,2.4667246E1,1.3488687E1,1.3933081E1],"tree_param":{"num_deleted":"0","num_feature":"13","num_nodes":"125","size_leaf_vector":"1"}},{"base_weights":[1.4847812E-3,-6.885959E-1,1.2269932E0,-2.108369E-1,-1.4745505E0,7.488343E-1,1.5494875E0,-8.088267E-2,-7.994098E-2,-1.5268115E0,2.593172E-1,8.08878E-1,-1.5440117E0,8.7824637E-1,1.6216877E0,1.0683732E0,-1.9379792E-1,-1.5715312E0,-1.1844103E0,-2.0482452E-1,9.8085535E-1,4.5167413E-1,1.2244309E0,-1.7411282E0,-1.1233519E0,9.1748023E-1,-1.086159E0,1.6310823E0,-1.0752547E0,-7.949893E-2,1.30533E0,-4.274822E-1,2.4408527E-1,-1.5797383E0,-1.4175059E0,-1.25871E0,-9.8738074E-2,-6.3305897E-1,5.2617234E-1,6.6362697E-1,1.5133835E0,5.408007E-1,-1.3674275E0,1.2803655E0,8.5342145E-1,-8.973867E-2,-8.125862E-2,-1.3083609E0,-9.522345E-1,5.0929844E-1,9.7853965E-1,-1.2421381E0,-5.656274E-1,1.4856312E0,1.6696789E0,-2.993283E-1,-1.5963646E0,5.3087432E-2,8.163702E-2,-8.027642E-2,-1.8211383E-2,1.7195709E-2,-6.5522656E-2,-7.9543136E-2,-7.6057665E-2,-7.470177E-2,-5.1696308E-2,-6.595116E-2,-2.7759215E-2,-2.309085E-2,2.7575856E-2,-3.7689656E-2,2.347988E-2,1.4887373E-2,6.8239175E-2,1.4081453E-2,6.6668324E-2,6.823394E-2,9.06323E-2,2.7789598E-2,-8.0905296E-2,-7.4312024E-2,1.5209741E-2,5.1640715E-2,6.900627E-2,5.7820786E-2,-2.2841914E-2,-6.710583E-2,-3.307496E-2,4.0514194E-4,-4.9979016E-2,3.737382E-2,8.647035E-3,5.7813257E-2,4.288254E-2,-3.1643517E-2,-7.38852E-2,-8.188177E-2,-5.4243333E-3,7.638886E-2,-9.114398E-2,8.3539486E-2,5.9753474E-2,2.9426549E-2,-1.9092798E-2,7.775821E-4,-8.1075594E-2],"categories":[],"categories_nodes":[],"categories_segments":[],"categories_sizes":[],"default_left":[0,0,0,0,0,0,0,0,0,0,0,0,0,0,0,0,0,0,0,0,0,0,0,0,0,0,0,0,0,0,0,0,0,0,0,0,0,0,0,0,0,0,0,0,0,0,0,0,0,0,0,0,0,0,0,0,0,0,0,0,0,0,0,0,0,0,0,0,0,0,0,0,0,0,0,0,0,0,0,0,0,0,0,0,0,0,0,0,0,0,0,0,0,0,0,0,0,0,0,0,0,0,0,0,0,0,0],"id":5,"left_children":[1,3,5,7,9,11,13,15,-1,17,19,21,23,25,27,29,31,33,35,37,39,41,43,45,47,49,51,53,55,-1,57,59,61,63,65,67,69,71,73,75,77,79,81,83,85,-1,-1,87,89,91,93,95,97,99,101,103,105,-1,-1,-1,-1,-1,-1,-1,-1,-1,-1,-1,-1,-1,-1,-1,-1,-1,-1,-1,-1,-1,-1,-1,-1,-1,-1,-1,-1,-1,-1,-1,-1,-1,-1,-1,-1,-1,-1,-1,-1,-1,-1,-1,-1,-1,-1,-1,-1,-1,-1],"loss_changes":[1.793703E5,5.0950902E4,1.1781047E4,1.5222076E4,4.6487734E3,4.238453E3,2.2099688E3,1.0014232E4,0E0,7.6064844E2,5.0315613E2,4.4515176E3,6.3198853E1,3.426997E2,1.0455703E3,4.350831E3,7.1901367E3,5.3429688E1,4.6423682E2,2.8668582E2,9.834039E1,2.6159692E3,2.8660742E2,4.0014648E-1,6.7806396E0,1.0785156E2,6.3833466E0,2.2799219E2,5.759134E1,0E0,5.0383008E2,3.413459E3,3.7949292E3,2.4828125E1,6.414502E1,2.2788379E2,8.756606E1,7.720706E1,6.443033E1,9.436569E1,7.261322E0,4.9859473E2,1.5014038E2,2.9604102E2,7.227853E2,0E0,0E0,1.7138214E0,6.163864E0,4.535692E1,8.023364E1,8.582565E0,1.0583176E1,1.2045742E3,1.51015625E1,4.542738E0,3.4983978E0,0E0,0E0,0E0,0E0,0E0,0E0,0E0,0E0,0E0,0E0,0E0,0E0,0E0,0E0,0E0,0E0,0E0,0E0,0E0,0E0,0E0,0E0,0E0,0E0,0E0,0E0,0E0,0E0,0E0,0E0,0E0,0E0,0E0,0E0,0E0,0E0,0E0,0E0,0E0,0E0,0E0,0E0,0E0,0E0,0E0,0E0,0E0,0E0,0E0,0E0],"parents":[2147483647,0,0,1,1,2,2,3,3,4,4,5,5,6,6,7,7,9,9,10,10,11,11,12,12,13,13,14,14,15,15,16,16,17,17,18,18,19,19,20,20,21,21,22,22,23,23,24,24,25,25,26,26,27,27,28,28,30,30,31,31,32,32,33,33,34,34,35,35,36,36,37,37,38,38,39,39,40,40,41,41,42,42,43,43,44,44,47,47,48,48,49,49,50,50,51,51,52,52,53,53,54,54,55,55,56,56],"right_children":[2,4,6,8,10,12,14,16,-1,18,20,22,24,26,28,30,32,34,36,38,40,42,44,46,48,50,52,54,56,-1,58,60,62,64,66,68,70,72,74,76,78,80,82,84,86,-1,-1,88,90,92,94,96,98,100,102,104,106,-1,-1,-1,-1,-1,-1,-1,-1,-1,-1,-1,-1,-1,-1,-1,-1,-1,-1,-1,-1,-1,-1,-1,-1,-1,-1,-1,-1,-1,-1,-1,-1,-1,-1,-1,-1,-1,-1,-1,-1,-1,-1,-1,-1,-1,-1,-1,-1,-1,-1],"split_conditions":[6.23405E-1,2E0,1.0144646E0,7.5E1,8E0,1.7342448E0,4.09099E-1,1.10561E-1,-7.994098E-2,6E0,9E0,8.073654E-1,2.4271414E0,2.1524334E0,2.4271414E0,7E1,4.62961E-1,2E0,2E0,1E0,1E1,2E0,1.3932828E0,2.096855E0,7.6767E-1,1.0877357E0,2.658238E0,1.2783964E0,1.1601572E0,-7.949893E-2,9.937968E-1,7E1,1.4146624E0,5E0,5E0,1E0,7E0,1E0,2E0,1E0,1.1E1,7.5E1,7E0,7.223828E-1,7.6767E-1,-8.973867E-2,-8.125862E-2,2.307404E4,9.599359E2,1.66718E-1,1.233103E0,9.6088E-2,2.05515E-1,1.5412376E0,2.096855E0,1.5395692E3,1.8589333E2,5.3087432E-2,8.163702E-2,-8.027642E-2,-1.8211383E-2,1.7195709E-2,-6.5522656E-2,-7.9543136E-2,-7.6057665E-2,-7.470177E-2,-5.1696308E-2,-6.595116E-2,-2.7759215E-2,-2.309085E-2,2.7575856E-2,-3.7689656E-2,2.347988E-2,1.4887373E-2,6.8239175E-2,1.4081453E-2,6.6668324E-2,6.823394E-2,9.06323E-2,2.7789598E-2,-8.0905296E-2,-7.4312024E-2,1.5209741E-2,5.1640715E-2,6.900627E-2,5.7820786E-2,-2.2841914E-2,-6.710583E-2,-3.307496E-2,4.0514194E-4,-4.9979016E-2,3.737382E-2,8.647035E-3,5.7813257E-2,4.288254E-2,-3.1643517E-2,-7.38852E-2,-8.188177E-2,-5.4243333E-3,7.638886E-2,-9.114398E-2,8.3539486E-2,5.9753474E-2,2.9426549E-2,-1.9092798E-2,7.775821E-4,-8.1075594E-2],"split_indices":[12,6,12,3,6,4,4,12,0,6,6,4,4,12,4,3,12,7,7,7,6,6,4,4,12,12,12,12,12,0,4,3,4,6,6,10,6,10,7,7,6,3,6,12,12,0,0,0,0,4,12,4,4,4,4,0,0,0,0,0,0,0,0,0,0,0,0,0,0,0,0,0,0,0,0,0,0,0,0,0,0,0,0,0,0,0,0,0,0,0,0,0,0,0,0,0,0,0,0,0,0,0,0,0,0,0,0],"split_type":[0,0,0,0,0,0,0,0,0,0,0,0,0,0,0,0,0,0,0,0,0,0,0,0,0,0,0,0,0,0,0,0,0,0,0,0,0,0,0,0,0,0,0,0,0,0,0,0,0,0,0,0,0,0,0,0,0,0,0,0,0,0,0,0,0,0,0,0,0,0,0,0,0,0,0,0,0,0,0,0,0,0,0,0,0,0,0,0,0,0,0,0,0,0,0,0,0,0,0,0,0,0,0,0,0,0,0],"sum_hessian":[2.1209492E5,1.3568914E5,7.640577E4,8.439136E4,5.129779E4,3.0776736E4,4.5629035E4,7.7167375E4,7.2239795E3,4.979696E4,1.5008252E3,2.999197E4,7.8476526E2,4.432599E3,4.1196438E4,6.9027236E3,7.026466E4,4.4041305E4,5.755656E3,9.137537E2,5.8707153E2,1.6129419E4,1.3862552E4,5.3222943E2,2.5253584E2,4.346325E3,8.6273636E1,4.1053824E4,1.4261365E2,5.64463E2,6.3382607E3,4.581479E4,2.4449867E4,4.1804555E4,2.2367512E3,5.3868394E3,3.6881616E2,5.762862E2,3.374675E2,3.6931552E2,2.17756E2,1.5376741E4,7.5267816E2,1.204427E4,1.8182821E3,3.5398547E2,1.7824393E2,1.1814912E2,1.3438673E2,5.6677563E2,3.7795498E3,6.531536E1,2.0958273E1,8.617672E3,3.2436152E4,5.7930397E1,8.468325E1,3.6368325E3,2.701428E3,2.3334E3,4.3481387E4,2.2975229E4,1.4746382E3,3.5111246E4,6.693311E3,1.8623014E3,3.7444983E2,4.9606855E3,4.261539E2,2.3685481E2,1.3196135E2,5.196988E2,5.6587437E1,2.662894E2,7.1178116E1,2.3608228E2,1.3323325E2,1.4918535E2,6.857066E1,1.527144E4,1.05300766E2,7.028341E2,4.984401E1,3.462796E3,8.581474E3,1.4768757E3,3.414063E2,1.1126793E2,6.881187E0,6.3530774E0,1.2803365E2,3.3109915E2,2.356765E2,1.526619E3,2.2529307E3,1.9239893E1,4.607547E1,5.4935045E0,1.5464767E1,8.509807E3,1.0786495E2,3.23579E4,7.82529E1,4.405312E0,5.3525085E1,1.3066939E0,8.337656E1],"tree_param":{"num_deleted":"0","num_feature":"13","num_nodes":"107","size_leaf_vector":"1"}},{"base_weights":[1.473267E-3,5.9678954E-1,-1.4442238E0,1.3118948E-2,1.2493459E0,-1.4878055E0,2.8472662E-1,1.1279591E0,-1.0850168E-1,8.151374E-1,1.4945798E0,-1.5089308E0,-8.338407E-1,-1.4203338E-1,9.478682E-1,8.655884E-1,1.5419401E0,-3.8523751E-1,2.9968596E-1,8.7765366E-1,-1.475604E0,8.355058E-1,1.5681235E0,-1.5260777E0,-1.269855E0,-1.1101637E0,-2.792874E-1,-5.6348366E-1,5.5713487E-1,6.4926225E-1,1.4883713E0,1.1098932E0,4.5623395E-1,1.3996886E0,1.6501542E0,-8.9244574E-2,-6.7474025E-1,3.6850408E-1,-1.4407737E0,5.6862795E-1,1.2047687E0,-8.40018E-2,-1.046865E0,8.7888974E-1,-9.502743E-1,1.5765787E0,-9.220242E-1,-1.5386703E0,-1.4414134E0,-1.324182E0,-4.283773E-1,-1.2079405E0,-1.435584E-1,-5.062391E-1,5.6344956E-1,-6.8381846E-1,5.64978E-1,3.5589367E-1,1.3624109E0,2.338521E-1,1.3095117E0,1.3377206E0,1.7507944E0,5.662437E-2,-6.869417E-2,3.10096E-2,-3.338674E-2,7.742568E-2,2.1357201E-2,8.141231E-2,9.114691E-2,2.330426E-2,-1.0968317E-2,-4.1439235E-2,2.281058E-3,4.0541828E-4,2.5744183E-2,-5.8776308E-2,-8.143314E-2,2.4144234E-2,3.4796327E-2,6.335342E-2,3.3427767E-2,-6.5799735E-2,-4.3700565E-2,2.3650518E-2,4.6992127E-2,-1.4578064E-2,-5.5357356E-2,7.17609E-2,8.069713E-2,-5.5690026E-3,-7.084858E-2,-7.699457E-2,-6.629723E-2,-7.346239E-2,-4.6888903E-2,-6.85763E-2,-3.7589055E-2,-2.986452E-2,2.7283747E-2,-3.207192E-2,-6.38507E-2,-1.1124201E-2,5.3421676E-2,-3.1356495E-2,3.363913E-2,2.2714864E-2,7.906793E-2,-4.002471E-2,-1.3386013E-2,-3.6214057E-2,3.5430174E-2,1.1728932E-2,7.587634E-2,5.1533576E-2,8.199362E-2,5.525756E-3,6.755556E-2,5.6042142E-2,8.3077826E-2,3.9595485E-2,7.316744E-2,1.41034825E-2,8.9316286E-2],"categories":[],"categories_nodes":[],"categories_segments":[],"categories_sizes":[],"default_left":[0,0,0,0,0,0,0,0,0,0,0,0,0,0,0,0,0,0,0,0,0,0,0,0,0,0,0,0,0,0,0,0,0,0,0,0,0,0,0,0,0,0,0,0,0,0,0,0,0,0,0,0,0,0,0,0,0,0,0,0,0,0,0,0,0,0,0,0,0,0,0,0,0,0,0,0,0,0,0,0,0,0,0,0,0,0,0,0,0,0,0,0,0,0,0,0,0,0,0,0,0,0,0,0,0,0,0,0,0,0,0,0,0,0,0,0,0,0,0,0,0,0,0,0,0],"id":6,"left_children":[1,3,5,7,9,11,13,15,17,19,21,23,25,27,29,31,33,35,37,39,41,43,45,47,49,51,53,55,57,59,61,63,65,67,69,71,73,75,77,79,81,-1,83,85,87,89,91,93,95,97,99,101,103,105,107,109,111,113,115,117,119,121,123,-1,-1,-1,-1,-1,-1,-1,-1,-1,-1,-1,-1,-1,-1,-1,-1,-1,-1,-1,-1,-1,-1,-1,-1,-1,-1,-1,-1,-1,-1,-1,-1,-1,-1,-1,-1,-1,-1,-1,-1,-1,-1,-1,-1,-1,-1,-1,-1,-1,-1,-1,-1,-1,-1,-1,-1,-1,-1,-1,-1,-1,-1],"loss_changes":[1.8085355E5,5.669166E4,4.6188047E3,1.0653289E4,7.481883E3,8.246875E2,4.2685663E2,8.380996E2,8.002547E3,3.6340645E3,2.1754844E3,2.3546875E2,2.8671252E2,2.7090512E2,9.434485E1,4.727964E2,4.38208E1,3.6178096E3,3.4289617E3,2.4955234E3,5.7339355E1,3.5027173E2,8.520625E2,5.5382812E1,1.7688086E2,1.1794861E2,1.1968198E2,7.8255264E1,5.5564087E1,1.04510956E2,5.935425E0,1.6784497E2,3.2669525E2,1.876919E2,3.453125E0,1.508698E3,2.3685205E3,1.4526421E3,5.2355713E1,1.3828271E2,3.9985352E2,0E0,9.1006775E0,1.08505615E2,1.0781143E1,2.1035156E2,5.4948204E1,1.01796875E1,9.6916016E1,9.776709E1,3.930027E1,4.3588623E1,1.1328782E1,7.059677E1,1.4050003E1,2.4964554E1,1.0846552E1,3.8830147E1,4.6423492E0,3.2342644E1,7.9259796E0,8.252533E0,3.3120728E0,0E0,0E0,0E0,0E0,0E0,0E0,0E0,0E0,0E0,0E0,0E0,0E0,0E0,0E0,0E0,0E0,0E0,0E0,0E0,0E0,0E0,0E0,0E0,0E0,0E0,0E0,0E0,0E0,0E0,0E0,0E0,0E0,0E0,0E0,0E0,0E0,0E0,0E0,0E0,0E0,0E0,0E0,0E0,0E0,0E0,0E0,0E0,0E0,0E0,0E0,0E0,0E0,0E0,0E0,0E0,0E0,0E0,0E0,0E0,0E0,0E0,0E0],"parents":[2147483647,0,0,1,1,2,2,3,3,4,4,5,5,6,6,7,7,8,8,9,9,10,10,11,11,12,12,13,13,14,14,15,15,16,16,17,17,18,18,19,19,20,20,21,21,22,22,23,23,24,24,25,25,26,26,27,27,28,28,29,29,30,30,31,31,32,32,33,33,34,34,35,35,36,36,37,37,38,38,39,39,40,40,42,42,43,43,44,44,45,45,46,46,47,47,48,48,49,49,50,50,51,51,52,52,53,53,54,54,55,55,56,56,57,57,58,58,59,59,60,60,61,61,62,62],"right_children":[2,4,6,8,10,12,14,16,18,20,22,24,26,28,30,32,34,36,38,40,42,44,46,48,50,52,54,56,58,60,62,64,66,68,70,72,74,76,78,80,82,-1,84,86,88,90,92,94,96,98,100,102,104,106,108,110,112,114,116,118,120,122,124,-1,-1,-1,-1,-1,-1,-1,-1,-1,-1,-1,-1,-1,-1,-1,-1,-1,-1,-1,-1,-1,-1,-1,-1,-1,-1,-1,-1,-1,-1,-1,-1,-1,-1,-1,-1,-1,-1,-1,-1,-1,-1,-1,-1,-1,-1,-1,-1,-1,-1,-1,-1,-1,-1,-1,-1,-1,-1,-1,-1,-1,-1],"split_conditions":[2.04953E-1,6.59034E-1,8E0,1.33E-1,1.0144646E0,7E0,9E0,9.937968E-1,4.62961E-1,1.7342448E0,4.171E-1,6E0,1E0,1E0,1E0,9.3494E-2,1.3208435E0,7.334677E-1,1.6533742E0,8.073654E-1,2.4271414E0,2.107904E0,2.4271414E0,5E0,2E0,1E0,2E0,1E0,2E0,1E1,1E1,2E0,7.918603E-1,9.7175E-2,1.15956E-1,3.54237E-1,1.375663E0,5.120608E-1,1.9181155E0,8.2230353E-1,1.4146624E0,-8.40018E-2,7.6767E-1,1.0877357E0,6.454872E-2,1.2783964E0,1.1336809E0,3E0,2E0,1E0,3E0,5.06305E2,5.960348E-1,1E0,1E0,3.75181E-1,9.0656E-2,1E0,2.34245E-1,1E0,1.1E1,1.41052E-1,1.055964E0,5.662437E-2,-6.869417E-2,3.10096E-2,-3.338674E-2,7.742568E-2,2.1357201E-2,8.141231E-2,9.114691E-2,2.330426E-2,-1.0968317E-2,-4.1439235E-2,2.281058E-3,4.0541828E-4,2.5744183E-2,-5.8776308E-2,-8.143314E-2,2.4144234E-2,3.4796327E-2,6.335342E-2,3.3427767E-2,-6.5799735E-2,-4.3700565E-2,2.3650518E-2,4.6992127E-2,-1.4578064E-2,-5.5357356E-2,7.17609E-2,8.069713E-2,-5.5690026E-3,-7.084858E-2,-7.699457E-2,-6.629723E-2,-7.346239E-2,-4.6888903E-2,-6.85763E-2,-3.7589055E-2,-2.986452E-2,2.7283747E-2,-3.207192E-2,-6.38507E-2,-1.1124201E-2,5.3421676E-2,-3.1356495E-2,3.363913E-2,2.2714864E-2,7.906793E-2,-4.002471E-2,-1.3386013E-2,-3.6214057E-2,3.5430174E-2,1.1728932E-2,7.587634E-2,5.1533576E-2,8.199362E-2,5.525756E-3,6.755556E-2,5.6042142E-2,8.3077826E-2,3.9595485E-2,7.316744E-2,1.41034825E-2,8.9316286E-2],"split_indices":[8,12,6,12,12,6,6,4,12,4,4,6,7,7,7,12,4,4,4,4,4,12,4,6,7,10,7,10,7,6,6,6,4,12,12,4,4,4,4,12,4,0,12,12,4,12,12,7,7,10,7,9,4,10,10,12,12,10,12,10,6,12,8,0,0,0,0,0,0,0,0,0,0,0,0,0,0,0,0,0,0,0,0,0,0,0,0,0,0,0,0,0,0,0,0,0,0,0,0,0,0,0,0,0,0,0,0,0,0,0,0,0,0,0,0,0,0,0,0,0,0,0,0,0,0],"split_type":[0,0,0,0,0,0,0,0,0,0,0,0,0,0,0,0,0,0,0,0,0,0,0,0,0,0,0,0,0,0,0,0,0,0,0,0,0,0,0,0,0,0,0,0,0,0,0,0,0,0,0,0,0,0,0,0,0,0,0,0,0,0,0,0,0,0,0,0,0,0,0,0,0,0,0,0,0,0,0,0,0,0,0,0,0,0,0,0,0,0,0,0,0,0,0,0,0,0,0,0,0,0,0,0,0,0,0,0,0,0,0,0,0,0,0,0,0,0,0,0,0,0,0,0,0],"sum_hessian":[2.1013475E5,1.4884373E5,6.1291016E4,7.856938E4,7.027434E4,5.9784176E4,1.5068394E3,7.7274194E3,7.084196E4,2.5365973E4,4.4908375E4,5.7912098E4,1.8720771E3,9.1730206E2,5.895373E2,4.7316865E3,2.9957332E3,4.2219074E4,2.8622887E4,2.4692705E4,6.7326764E2,4.509358E3,4.0399016E4,5.4031492E4,3.8806082E3,1.2488152E3,6.2326196E2,5.7243756E2,3.448645E2,3.8116196E2,2.0837532E2,2.9621497E3,1.7695369E3,1.3003325E3,1.6954005E3,2.0876186E4,2.134289E4,2.7534938E4,1.0879487E3,1.2698842E4,1.1993864E4,4.539135E2,2.1935414E2,4.402901E3,1.06456764E2,4.026267E4,1.3634413E2,4.7020703E4,7.0107876E3,3.6447256E3,2.3588264E2,1.1338691E3,1.14946014E2,4.9134143E2,1.319205E2,5.176332E2,5.4804382E1,2.7706656E2,6.779792E1,2.3479181E2,1.4637015E2,1.3625325E2,7.212206E1,2.9359858E3,2.616377E1,1.5446592E3,2.248777E2,1.1272426E3,1.7308997E2,1.513873E3,1.815275E2,3.9625122E3,1.6913674E4,1.758278E4,3.76011E3,7.953636E3,1.95813E4,4.5411688E2,6.338318E2,7.590786E3,5.1080557E3,1.0744192E4,1.2496719E3,8.3200035E1,1.3615411E2,5.7601636E2,3.8268845E3,2.102612E1,8.543065E1,8.425475E3,3.1837197E4,5.2152214E1,8.4191925E1,4.674613E4,2.7457272E2,6.6418003E3,3.6898734E2,3.365006E3,2.7971942E2,2.0135237E2,3.453027E1,1.2434528E2,1.00952386E3,1.0868483E2,6.261188E0,4.4607162E2,4.5269794E1,1.2045066E2,1.1469847E1,4.035518E2,1.1408142E2,5.0880933E0,4.971629E1,2.5195557E2,2.5111012E1,3.302595E1,3.4771965E1,2.1243906E2,2.2352755E1,9.8021835E1,4.8348305E1,2.6859911E1,1.0939334E2,1.9146955E0,7.020737E1],"tree_param":{"num_deleted":"0","num_feature":"13","num_nodes":"125","size_leaf_vector":"1"}},{"base_weights":[4.6953856E-4,5.7030374E-1,-1.3995403E0,-1.4666577E-2,1.1719959E0,-1.4422671E0,2.6647824E-1,1.0812844E0,-1.3870715E-1,7.5574243E-1,1.4436435E0,-1.4795657E0,-1.0925272E0,-1.5227872E-1,9.163195E-1,8.233909E-1,1.4986982E0,-3.6289868E-1,2.3970647E-1,8.130267E-1,-1.415701E0,7.93041E-1,1.5159788E0,-1.4918772E0,-1.3968245E0,-1.2797263E0,-6.939519E-1,-5.3716004E-1,5.1322347E-1,6.4446265E-1,1.3721846E0,1.0614508E0,4.2141196E-1,1.36405E0,1.5985076E0,-1.1375878E-1,-6.774468E-1,3.309247E-1,-1.1493013E0,5.105951E-1,1.1287068E0,-1.6019114E0,-1.0143783E0,8.285904E-1,-1.0520589E0,1.5274911E0,-3.4382275E-1,-1.4960114E0,-1.4127624E0,-1.4251935E0,-8.9495856E-1,-1.3659538E0,-1.0964031E0,-8.5540456E-1,-5.4803103E-2,3.1828914E-2,-6.454941E-1,3.3712527E-1,1.2024927E0,3.0496776E-1,1.2400082E0,1.205926E0,8.4699474E-2,5.418369E-2,-6.2924094E-2,3.4077197E-2,-8.802957E-3,7.523224E-2,2.2889962E-2,7.903277E-2,8.82827E-2,2.1739503E-2,-1.1273048E-2,-4.2698603E-2,1.434937E-3,1.26949595E-2,5.8892608E-2,-6.422094E-2,8.179302E-3,2.0559572E-2,3.0518884E-2,5.8876064E-2,3.7229113E-2,-8.266436E-2,-7.444742E-2,-6.584937E-2,-3.776332E-2,2.350945E-2,4.4150848E-2,-6.1039258E-2,-2.744705E-2,6.941959E-2,7.82234E-2,-4.9727745E-2,3.4304734E-2,-7.506659E-2,-7.389644E-2,-7.37407E-2,-6.0586173E-2,-7.273607E-2,-6.709782E-2,-5.1394153E-2,-9.5861184E-4,-5.8130424E-2,-6.989565E-2,-2.3522586E-2,-5.7682056E-2,-5.0688077E-2,-2.6352225E-2,-1.8926153E-2,2.7718876E-2,-2.6826437E-3,6.5347366E-2,-3.7205588E-2,-2.3254768E-3,2.143203E-3,3.4588125E-2,4.293324E-2,7.50154E-2,1.1463509E-2,7.068505E-2,3.2457065E-2,6.710048E-2,4.9520254E-2,7.39617E-2],"categories":[],"categories_nodes":[],"categories_segments":[],"categories_sizes":[],"default_left":[0,0,0,0,0,0,0,0,0,0,0,0,0,0,0,0,0,0,0,0,0,0,0,0,0,0,0,0,0,0,0,0,0,0,0,0,0,0,0,0,0,0,0,0,0,0,0,0,0,0,0,0,0,0,0,0,0,0,0,0,0,0,0,0,0,0,0,0,0,0,0,0,0,0,0,0,0,0,0,0,0,0,0,0,0,0,0,0,0,0,0,0,0,0,0,0,0,0,0,0,0,0,0,0,0,0,0,0,0,0,0,0,0,0,0,0,0,0,0,0,0,0,0,0,0],"id":7,"left_children":[1,3,5,7,9,11,13,15,17,19,21,23,25,27,29,31,33,35,37,39,41,43,45,47,49,51,53,55,57,59,61,63,65,67,69,71,73,75,77,79,81,83,85,87,89,91,93,95,97,99,101,103,105,107,109,111,113,115,117,119,121,123,-1,-1,-1,-1,-1,-1,-1,-1,-1,-1,-1,-1,-1,-1,-1,-1,-1,-1,-1,-1,-1,-1,-1,-1,-1,-1,-1,-1,-1,-1,-1,-1,-1,-1,-1,-1,-1,-1,-1,-1,-1,-1,-1,-1,-1,-1,-1,-1,-1,-1,-1,-1,-1,-1,-1,-1,-1,-1,-1,-1,-1,-1,-1],"loss_changes":[1.656548E5,5.1943594E4,4.2762188E3,1.0172736E4,8.225E3,7.623672E2,4.0909583E2,8.17791E2,5.703075E3,3.574918E3,2.0704531E3,5.18125E1,4.2050928E2,2.34582E2,7.211807E1,4.4979883E2,3.6851562E1,3.3080718E3,3.1692158E3,2.6719238E3,5.3586792E1,2.899131E2,8.486875E2,1.2953125E1,9.653418E1,5.922998E1,1.8642938E2,3.577617E1,4.0341316E1,7.461005E1,9.683441E0,1.5367773E2,2.7236646E2,1.577124E2,2.168457E0,1.4435485E3,2.3257324E3,1.5307368E3,2.736548E2,1.4156836E2,2.5592578E2,4.572754E-1,1.757927E1,8.392944E1,6.4383163E0,2.0033594E2,1.6456166E2,1.9921875E0,2.6964355E1,1.4026367E1,4.3082214E1,1.5328125E1,4.3669678E1,7.447742E1,7.228614E1,1.0286733E1,2.8752304E1,2.8018585E1,5.666893E0,1.9613333E1,7.2252197E0,7.2516174E0,0E0,0E0,0E0,0E0,0E0,0E0,0E0,0E0,0E0,0E0,0E0,0E0,0E0,0E0,0E0,0E0,0E0,0E0,0E0,0E0,0E0,0E0,0E0,0E0,0E0,0E0,0E0,0E0,0E0,0E0,0E0,0E0,0E0,0E0,0E0,0E0,0E0,0E0,0E0,0E0,0E0,0E0,0E0,0E0,0E0,0E0,0E0,0E0,0E0,0E0,0E0,0E0,0E0,0E0,0E0,0E0,0E0,0E0,0E0,0E0,0E0,0E0,0E0],"parents":[2147483647,0,0,1,1,2,2,3,3,4,4,5,5,6,6,7,7,8,8,9,9,10,10,11,11,12,12,13,13,14,14,15,15,16,16,17,17,18,18,19,19,20,20,21,21,22,22,23,23,24,24,25,25,26,26,27,27,28,28,29,29,30,30,31,31,32,32,33,33,34,34,35,35,36,36,37,37,38,38,39,39,40,40,41,41,42,42,43,43,44,44,45,45,46,46,47,47,48,48,49,49,50,50,51,51,52,52,53,53,54,54,55,55,56,56,57,57,58,58,59,59,60,60,61,61],"right_children":[2,4,6,8,10,12,14,16,18,20,22,24,26,28,30,32,34,36,38,40,42,44,46,48,50,52,54,56,58,60,62,64,66,68,70,72,74,76,78,80,82,84,86,88,90,92,94,96,98,100,102,104,106,108,110,112,114,116,118,120,122,124,-1,-1,-1,-1,-1,-1,-1,-1,-1,-1,-1,-1,-1,-1,-1,-1,-1,-1,-1,-1,-1,-1,-1,-1,-1,-1,-1,-1,-1,-1,-1,-1,-1,-1,-1,-1,-1,-1,-1,-1,-1,-1,-1,-1,-1,-1,-1,-1,-1,-1,-1,-1,-1,-1,-1,-1,-1,-1,-1,-1,-1,-1,-1],"split_conditions":[2.04953E-1,6.3043E-1,8E0,1.33E-1,1.0144646E0,6E0,9E0,1.0031046E0,4.62961E-1,1.7342448E0,4.09099E-1,5E0,1E0,1E0,1E1,9.3494E-2,1.3208435E0,7.8466636E-1,1.4146624E0,7.8466636E-1,2.4271414E0,2.1524334E0,2.096855E0,2E0,2E0,7E0,2E0,6.453688E2,2E0,1E0,1.1E1,2E0,6.817059E-1,9.7175E-2,1.18654E-1,3.54237E-1,1.375663E0,1.2748784E0,6.17477E-1,4.1323414E-1,1.4146624E0,2.096855E0,7.814632E-1,1.0877357E0,2.658238E0,1.2783964E0,1.666879E0,4E0,4E0,1E0,3E0,7.4521E2,5.6784717E2,7E0,7E0,4E0,4.74441E-1,2.59461E-1,2.34245E-1,4E0,1.5356E-1,2.73598E-1,8.4699474E-2,5.418369E-2,-6.2924094E-2,3.4077197E-2,-8.802957E-3,7.523224E-2,2.2889962E-2,7.903277E-2,8.82827E-2,2.1739503E-2,-1.1273048E-2,-4.2698603E-2,1.434937E-3,1.26949595E-2,5.8892608E-2,-6.422094E-2,8.179302E-3,2.0559572E-2,3.0518884E-2,5.8876064E-2,3.7229113E-2,-8.266436E-2,-7.444742E-2,-6.584937E-2,-3.776332E-2,2.350945E-2,4.4150848E-2,-6.1039258E-2,-2.744705E-2,6.941959E-2,7.82234E-2,-4.9727745E-2,3.4304734E-2,-7.506659E-2,-7.389644E-2,-7.37407E-2,-6.0586173E-2,-7.273607E-2,-6.709782E-2,-5.1394153E-2,-9.5861184E-4,-5.8130424E-2,-6.989565E-2,-2.3522586E-2,-5.7682056E-2,-5.0688077E-2,-2.6352225E-2,-1.8926153E-2,2.7718876E-2,-2.6826437E-3,6.5347366E-2,-3.7205588E-2,-2.3254768E-3,2.143203E-3,3.4588125E-2,4.293324E-2,7.50154E-2,1.1463509E-2,7.068505E-2,3.2457065E-2,6.710048E-2,4.9520254E-2,7.39617E-2],"split_indices":[8,12,6,12,12,6,6,4,12,4,4,6,7,7,6,12,4,4,4,4,4,12,4,7,7,6,7,9,7,7,6,6,4,12,12,4,4,4,12,4,4,4,12,12,12,12,12,6,6,7,7,0,0,6,6,5,4,12,12,5,4,12,0,0,0,0,0,0,0,0,0,0,0,0,0,0,0,0,0,0,0,0,0,0,0,0,0,0,0,0,0,0,0,0,0,0,0,0,0,0,0,0,0,0,0,0,0,0,0,0,0,0,0,0,0,0,0,0,0,0,0,0,0,0,0],"split_type":[0,0,0,0,0,0,0,0,0,0,0,0,0,0,0,0,0,0,0,0,0,0,0,0,0,0,0,0,0,0,0,0,0,0,0,0,0,0,0,0,0,0,0,0,0,0,0,0,0,0,0,0,0,0,0,0,0,0,0,0,0,0,0,0,0,0,0,0,0,0,0,0,0,0,0,0,0,0,0,0,0,0,0,0,0,0,0,0,0,0,0,0,0,0,0,0,0,0,0,0,0,0,0,0,0,0,0,0,0,0,0,0,0,0,0,0,0,0,0,0,0,0,0,0,0],"sum_hessian":[2.076444E5,1.4757769E5,6.0066707E4,7.482913E4,7.2748555E4,5.8564887E4,1.501822E3,7.607341E3,6.72218E4,2.8729416E4,4.401914E4,5.29181E4,5.6467837E3,9.137611E2,5.88061E2,4.704008E3,2.9033333E3,4.2212812E4,2.5008982E4,2.7991604E4,7.378139E2,4.405645E3,3.9613496E4,4.6049188E4,6.8689146E3,3.8407065E3,1.8060771E3,5.790632E2,3.3469797E2,3.6988965E2,2.1817131E2,2.9533406E3,1.750667E3,1.2422023E3,1.661131E3,2.3556271E4,1.865654E4,2.3468531E4,1.540452E3,1.4297118E4,1.3694484E4,5.0193066E2,2.3588326E2,4.322907E3,8.273819E1,3.9369973E4,2.4352289E2,4.3745387E4,2.3038008E3,6.499666E3,3.692486E2,2.607701E3,1.2330057E3,1.4415859E3,3.6449118E2,9.2730896E1,4.8633224E2,2.677746E2,6.692338E1,2.3655302E2,1.3333661E2,1.4698152E2,7.11898E1,2.9258462E3,2.7494354E1,1.2195488E3,5.311181E2,1.074799E3,1.674033E2,1.5102797E3,1.5085133E2,3.9847927E3,1.9571479E4,1.4925253E4,3.7312869E3,2.1513264E4,1.955267E3,1.3967275E3,1.4372441E2,7.164726E3,7.1323926E3,1.2148579E4,1.5459056E3,3.356434E2,1.6628725E2,1.0692548E2,1.2895778E2,5.71196E2,3.7517112E3,6.0891205E1,2.1846989E1,8.275976E3,3.1093996E4,1.4925409E2,9.426879E1,3.3736926E4,1.0008463E4,1.755593E3,5.482079E2,4.7855493E3,1.7141166E3,3.2043945E2,4.8809124E1,3.5925568E2,2.248445E3,1.040744E2,1.1289313E3,9.711473E2,4.704387E2,2.3825864E2,1.2623255E2,8.780267E1,4.9282203E0,4.173731E2,6.895915E1,1.4695724E2,1.2081734E2,3.2864506E1,3.4058876E1,2.2256447E2,1.398857E1,2.0713388E1,1.12623215E2,8.476368E1,6.2217842E1],"tree_param":{"num_deleted":"0","num_feature":"13","num_nodes":"125","size_leaf_vector":"1"}},{"base_weights":[-4.803352E-5,4.225536E-1,-1.3380264E0,-7.3309414E-2,4.8492965E-1,-1.3885391E0,2.6637164E-1,5.449165E-1,-7.278984E-2,-1.433449E0,-1.0505677E0,-1.348636E-1,8.7615913E-1,3.9746246E-1,8.7498593E-1,-1.4366839E0,-9.0609807E-1,-1.2433636E0,-6.5275955E-1,-5.1490366E-1,5.059884E-1,5.9601176E-1,1.32712E0,3.609959E-1,5.961845E-1,9.351767E-1,-1.2509829E0,-1.4503164E0,-1.365309E0,-1.0792869E0,-1.5389837E-1,-1.2904438E0,-7.188092E-1,-8.1401706E-1,-3.6548067E-2,-6.176985E-1,4.499787E-1,3.3129886E-1,1.161327E0,2.8153282E-1,1.1738456E0,1.1623394E0,1.6183548E0,1.8229065E-2,-7.333141E-2,3.1354923E-2,2.8584136E-2,3.4000646E-2,5.0058287E-2,-5.1635385E-2,-6.418308E-2,-7.2697036E-2,-6.860908E-2,-6.942754E-2,-5.350853E-2,-5.9480637E-2,1.18951285E-2,4.9192507E-2,-2.0024458E-2,-6.788767E-2,-5.7282925E-2,-4.7589395E-2,-1.4469467E-2,-4.5646194E-2,1.0705689E-2,-1.7098356E-2,2.5465965E-2,6.6919215E-3,-3.734537E-2,3.0959137E-3,3.7639525E-2,1.1070653E-2,6.511156E-2,7.8773506E-2,5.0110042E-2,8.344913E-3,6.1403703E-2,2.6165823E-2,6.274068E-2,4.9207717E-2,7.4215055E-2,3.1736005E-2,8.1917726E-2],"categories":[],"categories_nodes":[],"categories_segments":[],"categories_sizes":[],"default_left":[0,0,0,0,0,0,0,0,0,0,0,0,0,0,0,0,0,0,0,0,0,0,0,0,0,0,0,0,0,0,0,0,0,0,0,0,0,0,0,0,0,0,0,0,0,0,0,0,0,0,0,0,0,0,0,0,0,0,0,0,0,0,0,0,0,0,0,0,0,0,0,0,0,0,0,0,0,0,0,0,0,0,0],"id":8,"left_children":[1,3,5,-1,7,9,11,13,-1,15,17,19,21,23,25,27,29,31,33,35,37,39,41,43,45,47,49,51,53,55,57,59,61,63,65,67,69,71,73,75,77,79,81,-1,-1,-1,-1,-1,-1,-1,-1,-1,-1,-1,-1,-1,-1,-1,-1,-1,-1,-1,-1,-1,-1,-1,-1,-1,-1,-1,-1,-1,-1,-1,-1,-1,-1,-1,-1,-1,-1,-1,-1],"loss_changes":[1.16042695E5,1.8375463E4,3.9926875E3,0E0,1.757771E4,7.2339844E2,3.6821182E2,7.127617E3,0E0,7.0609375E1,4.291123E2,2.2146814E2,7.4655975E1,7.333916E2,5.788051E3,3.8789062E1,3.3667313E1,9.229053E1,1.8201202E2,5.6877625E1,3.83805E1,6.69366E1,9.061523E0,5.610596E2,1.1529297E1,7.398281E2,7.558716E0,7.9609375E0,4.4717773E1,3.0936874E1,1.4358019E1,3.218799E1,3.105246E1,1.4784357E2,6.3697968E1,5.0218704E1,6.477495E0,2.8385143E1,3.0912704E0,2.5948298E1,6.198395E0,7.097122E0,5.308533E-1,0E0,0E0,0E0,0E0,0E0,0E0,0E0,0E0,0E0,0E0,0E0,0E0,0E0,0E0,0E0,0E0,0E0,0E0,0E0,0E0,0E0,0E0,0E0,0E0,0E0,0E0,0E0,0E0,0E0,0E0,0E0,0E0,0E0,0E0,0E0,0E0,0E0,0E0,0E0,0E0],"parents":[2147483647,0,0,1,1,2,2,4,4,5,5,6,6,7,7,9,9,10,10,11,11,12,12,13,13,14,14,15,15,16,16,17,17,18,18,19,19,20,20,21,21,22,22,23,23,24,24,25,25,26,26,27,27,28,28,29,29,30,30,31,31,32,32,33,33,34,34,35,35,36,36,37,37,38,38,39,39,40,40,41,41,42,42],"right_children":[2,4,6,-1,8,10,12,14,-1,16,18,20,22,24,26,28,30,32,34,36,38,40,42,44,46,48,50,52,54,56,58,60,62,64,66,68,70,72,74,76,78,80,82,-1,-1,-1,-1,-1,-1,-1,-1,-1,-1,-1,-1,-1,-1,-1,-1,-1,-1,-1,-1,-1,-1,-1,-1,-1,-1,-1,-1,-1,-1,-1,-1,-1,-1,-1,-1,-1,-1,-1,-1],"split_conditions":[2E0,1.2E1,8E0,-7.3309414E-2,1.3E1,6E0,9E0,1.0749129E0,-7.278984E-2,3E0,1E0,1E0,1E1,9.2921394E-1,2.096855E0,5E0,5E0,1E0,2E0,1E0,2E0,1E0,1E0,2E0,9.849211E-1,1.1831173E0,3.0946206E3,2E0,1E0,1E0,5.06305E2,7E0,7E0,1E0,7E0,5.3435376E2,1.2E1,1E0,6.453688E2,1E0,1.0032119E-1,1.1E1,2.8423163E2,1.8229065E-2,-7.333141E-2,3.1354923E-2,2.8584136E-2,3.4000646E-2,5.0058287E-2,-5.1635385E-2,-6.418308E-2,-7.2697036E-2,-6.860908E-2,-6.942754E-2,-5.350853E-2,-5.9480637E-2,1.18951285E-2,4.9192507E-2,-2.0024458E-2,-6.788767E-2,-5.7282925E-2,-4.7589395E-2,-1.4469467E-2,-4.5646194E-2,1.0705689E-2,-1.7098356E-2,2.5465965E-2,6.6919215E-3,-3.734537E-2,3.0959137E-3,3.7639525E-2,1.1070653E-2,6.511156E-2,7.8773506E-2,5.0110042E-2,8.344913E-3,6.1403703E-2,2.6165823E-2,6.274068E-2,4.9207717E-2,7.4215055E-2,3.1736005E-2,8.1917726E-2],"split_indices":[6,2,6,0,2,6,6,4,0,7,7,7,6,4,4,6,6,10,7,10,7,7,7,11,4,4,0,7,10,10,9,6,6,10,6,9,2,10,9,10,4,6,0,0,0,0,0,0,0,0,0,0,0,0,0,0,0,0,0,0,0,0,0,0,0,0,0,0,0,0,0,0,0,0,0,0,0,0,0,0,0,0,0],"split_type":[0,0,0,0,0,0,0,0,0,0,0,0,0,0,0,0,0,0,0,0,0,0,0,0,0,0,0,0,0,0,0,0,0,0,0,0,0,0,0,0,0,0,0,0,0,0,0,0,0,0,0,0,0,0,0,0,0,0,0,0,0,0,0,0,0,0,0,0,0,0,0,0,0,0,0,0,0,0,0,0,0,0,0],"sum_hessian":[2.0522644E5,1.5596534E5,4.9261105E4,4.985398E3,1.5097994E5,4.7757645E4,1.5034604E3,1.4645384E5,4.526094E3,4.2153062E4,5.604582E3,9.072658E2,5.961947E2,1.0123201E5,4.522184E4,4.1894348E4,2.587126E2,3.7736E3,1.830982E3,5.6964795E2,3.3761786E2,3.6917572E2,2.2701897E2,8.5538125E4,1.5693886E4,4.397731E4,1.2445322E3,3.515959E4,6.7347593E3,2.099404E2,4.8772186E1,3.4614644E3,3.1213577E2,1.4509573E3,3.8002478E2,5.1512805E2,5.451994E1,2.6775073E2,6.986711E1,2.4002974E2,1.2914598E2,1.4817354E2,7.884543E1,8.537144E4,1.6668146E2,6.928099E3,8.765787E3,9.038585E3,3.4938723E4,1.6630544E2,1.0782268E3,3.3584168E4,1.5754235E3,6.2396865E3,4.950728E2,1.9380449E2,1.6135916E1,8.155162E0,4.0617023E1,2.3572283E3,1.104236E3,2.0156284E2,1.1057293E2,1.3237262E3,1.2723117E2,2.4392146E2,1.361033E2,7.556603E1,4.3956198E2,2.4424212E1,3.0095728E1,2.4163196E2,2.6118793E1,1.6922829E1,5.2944283E1,2.1514954E2,2.4880203E1,1.5121019E1,1.14024956E2,9.7995865E1,5.0177666E1,2.2235265E0,7.66219E1],"tree_param":{"num_deleted":"0","num_feature":"13","num_nodes":"83","size_leaf_vector":"1"}},{"base_weights":[2.0215774E-3,5.2463007E-1,-1.3221688E0,2.8385874E-2,1.1906391E0,-1.3642861E0,2.4776752E-1,1.0103171E0,-6.805252E-2,7.9925436E-1,1.3985975E0,-1.4009342E0,-1.0249442E0,-1.373738E-1,8.391367E-1,1.2027119E0,5.8010674E-1,-3.5170817E-1,3.3072406E-1,1.1401327E0,7.608205E-1,1.2376256E0,1.4399618E0,-1.4034111E0,-9.796204E-1,-1.2014068E0,-6.550371E-1,-4.977615E-1,4.731931E-1,5.833601E-1,1.2724568E0,1.2142296E0,-1.1427232E0,6.076962E-1,-8.349189E-2,7.9206534E-2,-4.3899992E-1,2.3324518E-1,5.464084E-1,6.1320317E-1,7.657697E-2,7.079053E-1,1.018537E0,1.1799706E0,1.246987E0,1.4167352E0,1.4829731E0,-1.4149992E0,-1.3264661E0,-1.1419502E0,-1.3672765E-1,-1.2508724E0,-6.557352E-1,-7.441771E-1,3.2202855E-1,-5.9955066E-1,4.2304188E-1,2.9672956E-1,1.1732106E0,2.9029676E-1,1.1282386E0,1.1234032E0,1.5682856E0,6.69471E-2,5.6109793E-2,-6.411684E-2,5.636189E-4,3.050229E-2,-6.22755E-2,4.4533806E-3,-7.616615E-2,-2.430904E-2,-4.223656E-3,3.880145E-3,1.5778372E-2,2.735579E-2,-6.7445055E-2,6.2274165E-3,3.1242147E-2,3.1866904E-2,3.7951745E-2,4.4971853E-2,5.375148E-2,6.512437E-2,5.818349E-2,6.430565E-2,6.1345007E-2,6.8328254E-2,7.134687E-2,7.3881E-2,7.6177865E-2,-7.11376E-2,-6.94344E-2,-6.719888E-2,-4.8581447E-2,-6.0219597E-2,-1.7327303E-2,1.5721852E-2,-2.4517663E-2,-4.765168E-2,-6.469703E-2,-4.5270395E-2,-9.635305E-3,-3.970028E-2,3.6196105E-2,1.308584E-3,4.07994E-2,-1.5219714E-3,-3.4461707E-2,-4.3183755E-2,2.9831884E-2,-3.3770048E-3,3.0856663E-2,-6.291791E-4,6.060204E-2,5.6892186E-2,9.218567E-3,5.7946194E-2,-1.2829483E-2,4.82449E-2,7.1535155E-2,1.891377E-2,7.9555385E-2],"categories":[],"categories_nodes":[],"categories_segments":[],"categories_sizes":[],"default_left":[0,0,0,0,0,0,0,0,0,0,0,0,0,0,0,0,0,0,0,0,0,0,0,0,0,0,0,0,0,0,0,0,0,0,0,0,0,0,0,0,0,0,0,0,0,0,0,0,0,0,0,0,0,0,0,0,0,0,0,0,0,0,0,0,0,0,0,0,0,0,0,0,0,0,0,0,0,0,0,0,0,0,0,0,0,0,0,0,0,0,0,0,0,0,0,0,0,0,0,0,0,0,0,0,0,0,0,0,0,0,0,0,0,0,0,0,0,0,0,0,0,0,0],"id":9,"left_children":[1,3,5,7,9,11,13,15,17,19,21,23,25,27,29,31,33,35,37,39,41,43,45,47,49,51,53,55,57,59,61,63,65,67,-1,69,71,73,75,77,-1,79,81,83,85,87,89,91,93,95,97,99,101,103,105,107,109,111,113,115,117,119,121,-1,-1,-1,-1,-1,-1,-1,-1,-1,-1,-1,-1,-1,-1,-1,-1,-1,-1,-1,-1,-1,-1,-1,-1,-1,-1,-1,-1,-1,-1,-1,-1,-1,-1,-1,-1,-1,-1,-1,-1,-1,-1,-1,-1,-1,-1,-1,-1,-1,-1,-1,-1,-1,-1,-1,-1,-1,-1,-1,-1],"loss_changes":[1.4082958E5,4.8225094E4,3.8080625E3,7.918032E3,5.069633E3,6.9602344E2,3.4298343E2,6.1823486E2,8.6124795E3,2.8237207E2,2.6910156E2,5.1445312E1,3.5627637E2,2.0102573E2,6.507864E1,1.4094238E2,1.4457275E2,1.6735923E3,6.652517E2,4.5043848E2,2.6427148E2,3.0205078E0,3.0234375E1,4.2992188E1,4.077243E1,9.911084E1,1.5430426E2,5.4081955E1,4.155352E1,5.9600006E1,7.920685E0,5.75083E1,4.164734E0,1.0710999E1,0E0,1.1858318E2,6.188032E2,2.7927344E2,1.39436035E1,5.237213E0,0E0,5.7695312E1,2.1289062E1,8.438721E-1,4.036133E0,8.816406E0,2.109375E-1,6.953125E0,3.971582E1,1.2033295E1,8.042168E0,4.229541E1,3.564229E1,1.1917987E2,2.169344E1,2.6394806E1,1.3415456E1,3.1817333E1,3.1441956E0,2.1819708E1,5.860138E0,5.903427E0,1.327591E0,0E0,0E0,0E0,0E0,0E0,0E0,0E0,0E0,0E0,0E0,0E0,0E0,0E0,0E0,0E0,0E0,0E0,0E0,0E0,0E0,0E0,0E0,0E0,0E0,0E0,0E0,0E0,0E0,0E0,0E0,0E0,0E0,0E0,0E0,0E0,0E0,0E0,0E0,0E0,0E0,0E0,0E0,0E0,0E0,0E0,0E0,0E0,0E0,0E0,0E0,0E0,0E0,0E0,0E0,0E0,0E0,0E0,0E0,0E0,0E0],"parents":[2147483647,0,0,1,1,2,2,3,3,4,4,5,5,6,6,7,7,8,8,9,9,10,10,11,11,12,12,13,13,14,14,15,15,16,16,17,17,18,18,19,19,20,20,21,21,22,22,23,23,24,24,25,25,26,26,27,27,28,28,29,29,30,30,31,31,32,32,33,33,35,35,36,36,37,37,38,38,39,39,41,41,42,42,43,43,44,44,45,45,46,46,47,47,48,48,49,49,50,50,51,51,52,52,53,53,54,54,55,55,56,56,57,57,58,58,59,59,60,60,61,61,62,62],"right_children":[2,4,6,8,10,12,14,16,18,20,22,24,26,28,30,32,34,36,38,40,42,44,46,48,50,52,54,56,58,60,62,64,66,68,-1,70,72,74,76,78,-1,80,82,84,86,88,90,92,94,96,98,100,102,104,106,108,110,112,114,116,118,120,122,-1,-1,-1,-1,-1,-1,-1,-1,-1,-1,-1,-1,-1,-1,-1,-1,-1,-1,-1,-1,-1,-1,-1,-1,-1,-1,-1,-1,-1,-1,-1,-1,-1,-1,-1,-1,-1,-1,-1,-1,-1,-1,-1,-1,-1,-1,-1,-1,-1,-1,-1,-1,-1,-1,-1,-1,-1,-1,-1,-1],"split_conditions":[2.04953E-1,7.1248865E-1,8E0,1.33E-1,1.063413E0,6E0,9E0,9.3494E-2,4.77569E-1,7.22925E-1,1.2783964E0,3E0,1E0,1E0,1E1,2E0,2E0,2.15181E-1,6.23405E-1,7.223828E-1,9.869741E-1,1.0877357E0,1.9959569E0,5E0,5E0,1E0,1E0,1E0,2E0,1E0,1E0,4.6164E-2,2E0,1.3E1,-8.349189E-2,2E0,4.48456E-1,5.2623E-1,2E0,6.2829E2,7.657697E-2,8.082041E-1,1.0144646E0,2.6665918E3,1.1336809E0,1.3656098E0,4.1588063E0,4E0,2E0,1E0,1.4067994E3,7.1671E2,7E0,3E0,7E0,7.1671E2,9.7175E-2,2.26679E-1,1E0,6.2829E2,9.1840256E1,1.1E1,4.6164E-2,6.69471E-2,5.6109793E-2,-6.411684E-2,5.636189E-4,3.050229E-2,-6.22755E-2,4.4533806E-3,-7.616615E-2,-2.430904E-2,-4.223656E-3,3.880145E-3,1.5778372E-2,2.735579E-2,-6.7445055E-2,6.2274165E-3,3.1242147E-2,3.1866904E-2,3.7951745E-2,4.4971853E-2,5.375148E-2,6.512437E-2,5.818349E-2,6.430565E-2,6.1345007E-2,6.8328254E-2,7.134687E-2,7.3881E-2,7.6177865E-2,-7.11376E-2,-6.94344E-2,-6.719888E-2,-4.8581447E-2,-6.0219597E-2,-1.7327303E-2,1.5721852E-2,-2.4517663E-2,-4.765168E-2,-6.469703E-2,-4.5270395E-2,-9.635305E-3,-3.970028E-2,3.6196105E-2,1.308584E-3,4.07994E-2,-1.5219714E-3,-3.4461707E-2,-4.3183755E-2,2.9831884E-2,-3.3770048E-3,3.0856663E-2,-6.291791E-4,6.060204E-2,5.6892186E-2,9.218567E-3,5.7946194E-2,-1.2829483E-2,4.82449E-2,7.1535155E-2,1.891377E-2,7.9555385E-2],"split_indices":[8,12,6,12,12,6,6,12,12,12,12,7,7,7,6,6,6,12,12,12,12,12,12,6,6,10,10,10,7,7,7,12,7,2,0,6,12,12,6,0,0,12,12,0,12,12,12,6,7,10,0,0,6,7,6,0,12,12,2,0,8,6,12,0,0,0,0,0,0,0,0,0,0,0,0,0,0,0,0,0,0,0,0,0,0,0,0,0,0,0,0,0,0,0,0,0,0,0,0,0,0,0,0,0,0,0,0,0,0,0,0,0,0,0,0,0,0,0,0,0,0,0,0],"split_type":[0,0,0,0,0,0,0,0,0,0,0,0,0,0,0,0,0,0,0,0,0,0,0,0,0,0,0,0,0,0,0,0,0,0,0,0,0,0,0,0,0,0,0,0,0,0,0,0,0,0,0,0,0,0,0,0,0,0,0,0,0,0,0,0,0,0,0,0,0,0,0,0,0,0,0,0,0,0,0,0,0,0,0,0,0,0,0,0,0,0,0,0,0,0,0,0,0,0,0,0,0,0,0,0,0,0,0,0,0,0,0,0,0,0,0,0,0,0,0,0,0,0,0],"sum_hessian":[2.034992E5,1.4591328E5,5.758592E4,8.361367E4,6.2299617E4,5.6081535E4,1.5043875E3,7.476708E3,7.613696E4,2.1618225E4,4.068139E4,5.0612375E4,5.469158E3,9.1151337E2,5.928741E2,5.165046E3,2.3116616E3,4.4490402E4,3.164656E4,2.1875635E3,1.9430662E4,8.322956E3,3.2358434E4,5.031425E4,2.98127E2,3.701245E3,1.767913E3,5.7330457E2,3.382088E2,3.7428842E2,2.185857E2,5.140286E3,2.4759941E1,2.28438E3,2.7281813E1,7.4944116E3,3.699599E4,2.1797312E4,9.849247E3,9.3346155E2,1.254102E3,1.6123813E4,3.3068484E3,1.1803717E3,7.1425845E3,2.1033842E4,1.1324593E4,4.37135E4,6.6007485E3,2.4968605E2,4.844098E1,3.3924268E3,3.088183E2,1.6203252E3,1.4758769E2,5.165518E2,5.6752758E1,2.712538E2,6.695499E1,2.443808E2,1.2990761E2,1.4854077E2,7.0044914E1,2.1768901E3,2.963396E3,2.1988495E1,2.7714458E0,2.2821572E3,2.2226326E0,7.449516E3,4.4895763E1,3.2650457E4,4.345533E3,7.5413076E3,1.4256005E4,9.846284E3,2.9634154E0,2.199001E1,9.1147156E2,6.779897E3,9.343917E3,1.0693396E3,2.2375088E3,1.2934117E2,1.0510305E3,2.4016135E3,4.7409707E3,3.5773003E3,1.7456541E4,1.00379795E4,1.286613E3,3.372353E4,9.98997E3,6.2876587E3,3.130898E2,2.3103488E2,1.8651165E1,2.1333706E1,2.7107273E1,4.3150113E2,2.9609258E3,2.000128E2,1.08805504E2,1.5675795E3,5.2745777E1,9.296144E1,5.4626247E1,7.050191E1,4.4604993E2,6.2739716E0,5.0478786E1,1.2730681E2,1.43947E2,2.1444294E0,6.481056E1,2.6067059E1,2.1831374E2,1.2725109E2,2.6565228E0,1.0072616E2,4.7814617E1,1.648759E0,6.839616E1],"tree_param":{"num_deleted":"0","num_feature":"13","num_nodes":"123","size_leaf_vector":"1"}},{"base_weights":[3.9408138E-4,5.0099707E-1,-1.2888663E0,2.8874887E-2,1.1590068E0,-1.3290788E0,1.9794734E-1,1.014801E0,-5.8944404E-2,7.716951E-1,1.3581383E0,-1.3663787E0,-9.86882E-1,-1.4946656E-1,7.3710924E-1,1.1673985E0,5.802194E-1,-3.254604E-1,3.2349554E-1,7.425606E-2,7.2643685E-1,1.1946626E0,1.3998132E0,-1.3796424E0,-1.27801E0,-1.1572949E0,-6.3069814E-1,-4.967036E-1,4.3904796E-1,4.8665014E-1,1.1994466E0,1.1794615E0,-1.2116338E0,6.064501E-1,-7.970058E-2,1.3423084E-1,-4.0817183E-1,2.2192489E-1,5.236032E-1,6.74174E-1,9.7787845E-1,1.1369866E0,1.2038488E0,1.3740373E0,1.4405557E0,-1.3844441E0,-1.2885284E0,-1.3031602E0,-8.4648705E-1,-1.2095726E0,-5.905639E-1,-8.446205E-1,-2.1646917E-1,-5.9755224E-1,4.3377414E-1,2.554597E-1,1.1381166E0,1.5857525E-1,1.0165195E0,1.0532285E0,1.4471444E0,6.484885E-2,5.466044E-2,-6.801567E-2,6.4195134E-3,3.3740796E-2,2.6729448E-2,1.9769302E-2,2.2246377E-3,-2.2887653E-2,-3.8242831E-3,3.9876075E-3,1.4542042E-2,2.6209036E-2,-6.430062E-2,2.995707E-2,3.5816666E-2,4.216254E-2,5.2051812E-2,6.178679E-2,5.6175966E-2,6.2349793E-2,5.9094425E-2,6.563603E-2,6.9131315E-2,7.178464E-2,7.406958E-2,-6.950021E-2,-6.827631E-2,-6.750828E-2,-5.4493148E-2,-6.635963E-2,-5.036332E-2,-4.5736723E-2,-3.7471203E-3,-6.395112E-2,-5.3130932E-2,-4.087575E-2,-1.0328463E-2,-4.5766868E-2,-1.634553E-3,-1.8890558E-2,1.9380422E-2,2.7587318E-3,-3.549517E-2,1.3570947E-2,8.170265E-2,-8.2623085E-4,2.9173557E-2,4.3283492E-2,6.813729E-2,2.4257316E-3,5.643338E-2,4.1494284E-2,6.928456E-2,2.9596794E-2,5.872037E-2,1.7515818E-2,7.337644E-2],"categories":[],"categories_nodes":[],"categories_segments":[],"categories_sizes":[],"default_left":[0,0,0,0,0,0,0,0,0,0,0,0,0,0,0,0,0,0,0,0,0,0,0,0,0,0,0,0,0,0,0,0,0,0,0,0,0,0,0,0,0,0,0,0,0,0,0,0,0,0,0,0,0,0,0,0,0,0,0,0,0,0,0,0,0,0,0,0,0,0,0,0,0,0,0,0,0,0,0,0,0,0,0,0,0,0,0,0,0,0,0,0,0,0,0,0,0,0,0,0,0,0,0,0,0,0,0,0,0,0,0,0,0,0,0,0,0,0,0],"id":10,"left_children":[1,3,5,7,9,11,13,15,17,19,21,23,25,27,29,31,33,35,37,-1,39,41,43,45,47,49,51,53,55,57,59,61,63,65,-1,67,69,71,73,75,77,79,81,83,85,87,89,91,93,95,97,99,101,103,105,107,109,111,113,115,117,-1,-1,-1,-1,-1,-1,-1,-1,-1,-1,-1,-1,-1,-1,-1,-1,-1,-1,-1,-1,-1,-1,-1,-1,-1,-1,-1,-1,-1,-1,-1,-1,-1,-1,-1,-1,-1,-1,-1,-1,-1,-1,-1,-1,-1,-1,-1,-1,-1,-1,-1,-1,-1,-1,-1,-1,-1,-1],"loss_changes":[1.2951717E5,4.4905598E4,3.3559688E3,7.2871963E3,4.6563125E3,6.961797E2,2.7712503E2,4.5581445E2,7.8770444E3,6.610596E2,2.7001562E2,5.6E1,3.255166E2,1.8417854E2,6.6542175E1,1.4760938E2,1.0310516E2,1.7316865E3,6.4497E2,0E0,2.5277441E2,2.9277344E0,3.1386719E1,1.6953125E1,6.8836914E1,1.0696094E2,1.5414307E2,5.3430054E1,4.2649162E1,6.549395E1,5.828247E0,4.9956543E1,5.392742E0,8.336365E0,0E0,1.6275824E2,6.347334E2,2.0626648E2,1.1841553E1,5.0089355E1,2.7322021E1,1.1706543E-1,5.1376953E0,8.4453125E0,3.1640625E-1,2.375E0,2.4961426E1,4.195117E1,1.8769287E1,3.2589844E1,2.6749947E1,6.589191E1,5.8083664E1,3.7560104E1,1.0466813E1,2.37652E1,3.0614853E0,2.4976473E1,8.788147E0,6.645767E0,1.1108856E0,0E0,0E0,0E0,0E0,0E0,0E0,0E0,0E0,0E0,0E0,0E0,0E0,0E0,0E0,0E0,0E0,0E0,0E0,0E0,0E0,0E0,0E0,0E0,0E0,0E0,0E0,0E0,0E0,0E0,0E0,0E0,0E0,0E0,0E0,0E0,0E0,0E0,0E0,0E0,0E0,0E0,0E0,0E0,0E0,0E0,0E0,0E0,0E0,0E0,0E0,0E0,0E0,0E0,0E0,0E0,0E0,0E0,0E0],"parents":[2147483647,0,0,1,1,2,2,3,3,4,4,5,5,6,6,7,7,8,8,9,9,10,10,11,11,12,12,13,13,14,14,15,15,16,16,17,17,18,18,20,20,21,21,22,22,23,23,24,24,25,25,26,26,27,27,28,28,29,29,30,30,31,31,32,32,33,33,35,35,36,36,37,37,38,38,39,39,40,40,41,41,42,42,43,43,44,44,45,45,46,46,47,47,48,48,49,49,50,50,51,51,52,52,53,53,54,54,55,55,56,56,57,57,58,58,59,59,60,60],"right_children":[2,4,6,8,10,12,14,16,18,20,22,24,26,28,30,32,34,36,38,-1,40,42,44,46,48,50,52,54,56,58,60,62,64,66,-1,68,70,72,74,76,78,80,82,84,86,88,90,92,94,96,98,100,102,104,106,108,110,112,114,116,118,-1,-1,-1,-1,-1,-1,-1,-1,-1,-1,-1,-1,-1,-1,-1,-1,-1,-1,-1,-1,-1,-1,-1,-1,-1,-1,-1,-1,-1,-1,-1,-1,-1,-1,-1,-1,-1,-1,-1,-1,-1,-1,-1,-1,-1,-1,-1,-1,-1,-1,-1,-1,-1,-1,-1,-1,-1,-1],"split_conditions":[2.04953E-1,7.223828E-1,8E0,1.25254E-1,1.063413E0,6E0,9E0,9.3494E-2,4.8163217E-1,7.22925E-1,1.2783964E0,5E0,1E0,1E0,1E0,2E0,2E0,2.06561E-1,6.23405E-1,7.425606E-2,9.869741E-1,1.0877357E0,1.9263133E0,2E0,2E0,1E0,7E0,1E0,2E0,1E1,1E1,4.6164E-2,2E0,1.10561E-1,-7.970058E-2,1.52059E-1,4.48456E-1,5.2623E-1,2E0,7.9495376E-1,1.0144646E0,-9.413827E3,1.1336809E0,1.338574E0,4.1588063E0,4E0,4E0,1E0,1E0,7E0,7E0,1E0,2E0,5.6275806E2,7.1625404E1,2.59461E-1,2.34245E-1,1E0,1.1E1,1.41052E-1,1.055964E0,6.484885E-2,5.466044E-2,-6.801567E-2,6.4195134E-3,3.3740796E-2,2.6729448E-2,1.9769302E-2,2.2246377E-3,-2.2887653E-2,-3.8242831E-3,3.9876075E-3,1.4542042E-2,2.6209036E-2,-6.430062E-2,2.995707E-2,3.5816666E-2,4.216254E-2,5.2051812E-2,6.178679E-2,5.6175966E-2,6.2349793E-2,5.9094425E-2,6.563603E-2,6.9131315E-2,7.178464E-2,7.406958E-2,-6.950021E-2,-6.827631E-2,-6.750828E-2,-5.4493148E-2,-6.635963E-2,-5.036332E-2,-4.5736723E-2,-3.7471203E-3,-6.395112E-2,-5.3130932E-2,-4.087575E-2,-1.0328463E-2,-4.5766868E-2,-1.634553E-3,-1.8890558E-2,1.9380422E-2,2.7587318E-3,-3.549517E-2,1.3570947E-2,8.170265E-2,-8.2623085E-4,2.9173557E-2,4.3283492E-2,6.813729E-2,2.4257316E-3,5.643338E-2,4.1494284E-2,6.928456E-2,2.9596794E-2,5.872037E-2,1.7515818E-2,7.337644E-2],"split_indices":[8,12,6,12,12,6,6,12,12,12,12,6,7,7,7,6,6,12,12,0,12,12,12,7,7,10,6,10,7,6,6,12,7,12,0,12,12,12,6,12,12,9,12,12,12,6,6,10,10,6,6,10,7,9,8,12,12,10,6,12,8,0,0,0,0,0,0,0,0,0,0,0,0,0,0,0,0,0,0,0,0,0,0,0,0,0,0,0,0,0,0,0,0,0,0,0,0,0,0,0,0,0,0,0,0,0,0,0,0,0,0,0,0,0,0,0,0,0,0],"split_type":[0,0,0,0,0,0,0,0,0,0,0,0,0,0,0,0,0,0,0,0,0,0,0,0,0,0,0,0,0,0,0,0,0,0,0,0,0,0,0,0,0,0,0,0,0,0,0,0,0,0,0,0,0,0,0,0,0,0,0,0,0,0,0,0,0,0,0,0,0,0,0,0,0,0,0,0,0,0,0,0,0,0,0,0,0,0,0,0,0,0,0,0,0,0,0,0,0,0,0,0,0,0,0,0,0,0,0,0,0,0,0,0,0,0,0,0,0,0,0],"sum_hessian":[2.0067302E5,1.4454766E5,5.612536E4,8.4162266E4,6.0385395E4,5.4647465E4,1.4778926E3,6.8825845E3,7.727968E4,2.0505998E4,3.98794E4,4.927358E4,5.3738877E3,8.9920465E2,5.786879E2,5.0926743E3,1.7899102E3,4.554222E4,3.1737463E4,1.221358E3,1.9284639E4,8.10722E3,3.1772178E4,4.2830348E4,6.443229E3,3.6333127E3,1.740575E3,5.656275E2,3.3357718E2,3.7668262E2,2.0200534E2,5.067484E3,2.5190744E1,1.7692859E3,2.062421E1,6.9446753E3,3.8597543E4,2.1053324E4,1.0684139E4,1.5969098E4,3.3155417E3,1.1310071E3,6.9762134E3,1.9481742E4,1.2290436E4,4.0672703E4,2.1576438E3,6.0864746E3,3.5675427E2,3.3254268E3,3.0788623E2,1.1471221E3,5.934529E2,5.1064023E2,5.498728E1,2.6527618E2,6.830097E1,2.3344295E2,1.4323967E2,1.3032527E2,7.168006E1,2.139067E3,2.9284167E3,2.266127E1,2.5294755E0,9.023938E2,8.668921E2,1.775173E3,5.1695024E3,3.3577867E4,5.0196777E3,6.8741655E3,1.4179159E4,1.0681439E4,2.6987286E0,5.750288E3,1.021881E4,1.0633177E3,2.252224E3,1.2484229E2,1.0061648E3,2.3342327E3,4.6419805E3,2.4125415E3,1.7069201E4,1.1014903E4,1.2755315E3,3.1378105E4,9.2946E3,1.6423107E3,5.153331E2,5.6260435E3,4.6043146E2,3.2759143E2,2.9162863E1,2.2529768E3,1.07245E3,1.9280458E2,1.15081635E2,1.0550985E3,9.202353E1,4.686552E2,1.2479771E2,7.506187E1,4.3557834E2,4.9515694E1,5.471589E0,1.455429E2,1.1973331E2,3.3058716E1,3.524226E1,2.1059964E2,2.2843307E1,9.729857E1,4.594111E1,2.8337494E1,1.0198778E2,1.6396632E0,7.00404E1],"tree_param":{"num_deleted":"0","num_feature":"13","num_nodes":"119","size_leaf_vector":"1"}},{"base_weights":[-2.0728342E-3,-5.558154E-1,9.997399E-1,-1.8072262E-1,-1.2381781E0,5.7996446E-1,1.302955E0,-8.2840025E-2,-6.7871094E-2,-1.2868966E0,2.084289E-1,6.185309E-1,-1.1309805E0,1.1128701E0,1.3652561E0,8.674998E-1,-1.7277859E-1,-1.3294764E0,-9.737649E-1,-1.3877115E-1,7.407333E-1,6.2533873E-1,-6.922501E-2,-1.2563206E0,4.01311E-1,9.955777E-1,1.1450809E0,1.3418515E0,1.4088514E0,-1.3598611E0,1.0607153E0,-3.6009765E-1,1.7776859E-1,-1.3323272E0,-8.836594E-1,-1.0402108E0,-7.7754304E-2,-4.690405E-1,4.1487208E-1,4.9593994E-1,1.175136E0,4.896739E-1,7.047601E-1,-1.2955995E0,-7.990757E-1,-1.7196727E-1,1.182685E0,7.99188E-1,4.9981024E-2,1.0909693E0,1.1536934E0,1.3042115E0,1.3573685E0,7.018177E-2,7.243859E-2,-6.838282E-2,-4.7000114E-2,5.7458963E-2,3.153922E-2,-6.834532E-2,-1.564644E-2,-6.8618596E-2,9.60684E-3,-6.734774E-2,-6.281736E-2,-5.1352E-2,-1.13945175E-2,-5.471773E-2,-2.2536512E-2,-1.6953634E-2,2.015063E-2,-2.8554255E-2,2.3063393E-2,1.3154822E-2,5.039383E-2,8.240823E-3,5.2111287E-2,5.263954E-2,6.928124E-2,-7.123895E-2,2.475734E-2,7.251047E-2,3.2628547E-2,-6.532219E-2,1.2939698E-2,-4.673004E-2,2.3947733E-2,-4.1525934E-2,2.6946548E-2,9.015888E-2,2.9372374E-2,5.4133214E-2,2.8940206E-2,6.147871E-2,5.3658497E-2,5.9581548E-2,5.6702085E-2,6.381174E-2,6.610908E-2,6.8669476E-2,6.673651E-2],"categories":[],"categories_nodes":[],"categories_segments":[],"categories_sizes":[],"default_left":[0,0,0,0,0,0,0,0,0,0,0,0,0,0,0,0,0,0,0,0,0,0,0,0,0,0,0,0,0,0,0,0,0,0,0,0,0,0,0,0,0,0,0,0,0,0,0,0,0,0,0,0,0,0,0,0,0,0,0,0,0,0,0,0,0,0,0,0,0,0,0,0,0,0,0,0,0,0,0,0,0,0,0,0,0,0,0,0,0,0,0,0,0,0,0,0,0,0,0,0,0],"id":11,"left_children":[1,3,5,7,9,11,13,15,-1,17,19,21,23,25,27,29,31,33,35,37,39,41,-1,43,45,47,49,51,53,55,57,59,61,63,65,67,69,71,73,75,77,79,81,83,85,87,89,91,-1,93,95,97,99,-1,-1,-1,-1,-1,-1,-1,-1,-1,-1,-1,-1,-1,-1,-1,-1,-1,-1,-1,-1,-1,-1,-1,-1,-1,-1,-1,-1,-1,-1,-1,-1,-1,-1,-1,-1,-1,-1,-1,-1,-1,-1,-1,-1,-1,-1,-1,-1],"loss_changes":[1.0978124E5,3.2620133E4,8.965766E3,9.472398E3,3.1863281E3,1.9503037E3,4.8283594E2,6.489824E3,0E0,5.818125E2,2.7247372E2,3.948916E2,1.256629E2,3.702539E1,2.9542969E1,2.8265684E3,4.5547764E3,4.7757812E1,3.1182422E2,1.6344382E2,6.1300385E1,3.0994727E2,0E0,9.788086E0,2.2615606E1,9.3530273E-1,2.4326172E0,9.9453125E0,2.0117188E-1,4.309082E-1,2.2903906E2,2.1464648E3,5.3831757E2,4.0820312E1,2.3044815E1,1.5516895E2,4.571187E1,5.339521E1,2.9806805E1,6.746794E1,3.9237366E0,1.1215723E2,7.056406E2,9.6657715E0,9.156857E0,1.4367362E1,6.8079395E0,2.4371643E0,0E0,1.4083252E0,3.7285156E0,1.2695312E0,3.3105469E0,0E0,0E0,0E0,0E0,0E0,0E0,0E0,0E0,0E0,0E0,0E0,0E0,0E0,0E0,0E0,0E0,0E0,0E0,0E0,0E0,0E0,0E0,0E0,0E0,0E0,0E0,0E0,0E0,0E0,0E0,0E0,0E0,0E0,0E0,0E0,0E0,0E0,0E0,0E0,0E0,0E0,0E0,0E0,0E0,0E0,0E0,0E0,0E0],"parents":[2147483647,0,0,1,1,2,2,3,3,4,4,5,5,6,6,7,7,9,9,10,10,11,11,12,12,13,13,14,14,15,15,16,16,17,17,18,18,19,19,20,20,21,21,23,23,24,24,25,25,26,26,27,27,28,28,29,29,30,30,31,31,32,32,33,33,34,34,35,35,36,36,37,37,38,38,39,39,40,40,41,41,42,42,43,43,44,44,45,45,46,46,47,47,49,49,50,50,51,51,52,52],"right_children":[2,4,6,8,10,12,14,16,-1,18,20,22,24,26,28,30,32,34,36,38,40,42,-1,44,46,48,50,52,54,56,58,60,62,64,66,68,70,72,74,76,78,80,82,84,86,88,90,92,-1,94,96,98,100,-1,-1,-1,-1,-1,-1,-1,-1,-1,-1,-1,-1,-1,-1,-1,-1,-1,-1,-1,-1,-1,-1,-1,-1,-1,-1,-1,-1,-1,-1,-1,-1,-1,-1,-1,-1,-1,-1,-1,-1,-1,-1,-1,-1,-1,-1,-1,-1],"split_conditions":[6.23405E-1,2E0,1.0144646E0,7.5E1,8E0,2E0,1.2783964E0,1.13417E-1,-6.7871094E-2,6E0,9E0,7.5E1,7E0,1.063413E0,1.9959569E0,7E1,4.62961E-1,3E0,2E0,1E0,1E0,7.223828E-1,-6.922501E-2,6E0,1E0,-1.1521588E4,1.0877357E0,1.4163157E0,4.1588063E0,6.6213325E3,9.3494E-2,7E1,7E1,5E0,5E0,1E0,7E0,1E0,2E0,1E1,1E1,7E1,7.22925E-1,3E0,3E0,8E0,1.4118224E3,-1.1828428E4,4.9981024E-2,-9.413827E3,1.1336809E0,1.338574E0,1.613383E0,7.018177E-2,7.243859E-2,-6.838282E-2,-4.7000114E-2,5.7458963E-2,3.153922E-2,-6.834532E-2,-1.564644E-2,-6.8618596E-2,9.60684E-3,-6.734774E-2,-6.281736E-2,-5.1352E-2,-1.13945175E-2,-5.471773E-2,-2.2536512E-2,-1.6953634E-2,2.015063E-2,-2.8554255E-2,2.3063393E-2,1.3154822E-2,5.039383E-2,8.240823E-3,5.2111287E-2,5.263954E-2,6.928124E-2,-7.123895E-2,2.475734E-2,7.251047E-2,3.2628547E-2,-6.532219E-2,1.2939698E-2,-4.673004E-2,2.3947733E-2,-4.1525934E-2,2.6946548E-2,9.015888E-2,2.9372374E-2,5.4133214E-2,2.8940206E-2,6.147871E-2,5.3658497E-2,5.9581548E-2,5.6702085E-2,6.381174E-2,6.610908E-2,6.8669476E-2,6.673651E-2],"split_indices":[12,6,12,3,6,6,12,12,0,6,6,3,6,12,12,3,12,7,7,7,7,12,0,6,7,9,12,12,12,9,12,3,3,6,6,10,6,10,7,6,6,3,12,7,5,6,9,9,0,9,12,12,12,0,0,0,0,0,0,0,0,0,0,0,0,0,0,0,0,0,0,0,0,0,0,0,0,0,0,0,0,0,0,0,0,0,0,0,0,0,0,0,0,0,0,0,0,0,0,0,0],"split_type":[0,0,0,0,0,0,0,0,0,0,0,0,0,0,0,0,0,0,0,0,0,0,0,0,0,0,0,0,0,0,0,0,0,0,0,0,0,0,0,0,0,0,0,0,0,0,0,0,0,0,0,0,0,0,0,0,0,0,0,0,0,0,0,0,0,0,0,0,0,0,0,0,0,0,0,0,0,0,0,0,0,0,0,0,0,0,0,0,0,0,0,0,0,0,0,0,0,0,0,0,0],"sum_hessian":[1.9789248E5,1.27447516E5,7.044497E4,8.224109E4,4.5206418E4,2.9545145E4,4.089982E4,7.592631E4,6.3147856E3,4.3733676E4,1.47274E3,2.889447E4,6.506723E2,1.0100712E4,3.0799111E4,6.563556E3,6.936275E4,3.849577E4,5.237908E3,8.917971E2,5.809429E2,2.8797285E4,9.7187096E1,6.0163885E2,4.903345E1,2.183098E3,7.917614E3,2.0060947E4,1.0738162E4,5.2343475E2,6.040121E3,4.520624E4,2.4156516E4,3.8249188E4,2.4658282E2,4.8761445E3,3.6176407E2,5.586774E2,3.3311966E2,3.7293127E2,2.0801158E2,1.0636147E4,1.8161137E4,5.5235614E2,4.9282696E1,2.873274E1,2.030071E1,4.804175E1,2.1350562E3,1.1046912E3,6.8129224E3,5.8807905E3,1.4180157E4,9.529252E3,1.2089104E3,5.1167725E2,1.1757495E1,5.0079883E3,1.032133E3,2.021871E3,4.3184367E4,2.2098161E2,2.3935535E4,3.2060225E4,6.1889624E3,2.0187723E2,4.4705593E1,4.4651636E3,4.109809E2,2.3456319E2,1.2720089E2,5.0380206E2,5.487538E1,2.663841E2,6.6735596E1,2.3300204E2,1.3992923E2,1.3534496E2,7.266663E1,2.9579872E1,1.0606567E4,1.1865227E3,1.6974613E4,5.486877E2,3.668446E0,4.4800655E1,4.482039E0,1.4828172E1,1.3904569E1,8.945905E0,1.1354806E1,1.9301678E1,2.8740072E1,1.1797036E2,9.867208E2,2.3044944E3,4.508428E3,2.3282053E3,3.5525852E3,8.2687295E3,5.911428E3],"tree_param":{"num_deleted":"0","num_feature":"13","num_nodes":"101","size_leaf_vector":"1"}},{"base_weights":[-2.4750528E-3,4.593299E-1,-1.2262669E0,2.8142808E-2,1.0843977E0,-1.2864414E0,-2.7351117E-1,9.1775644E-1,-5.570278E-2,4.2467698E-1,1.2038071E0,-1.3041273E0,-1.0489098E0,-4.921618E-1,6.946821E-1,6.6402566E-1,1.3397506E0,-3.0499968E-1,2.9837552E-1,2.6647964E-1,6.491705E-1,8.195304E-1,1.3469386E0,-1.3173736E0,-1.2166356E0,-1.1052141E0,-2.6458946E-1,-7.669879E-1,1.1236409E-2,4.6627805E-1,1.097532E0,8.7202406E-1,3.3037168E-1,1.1943268E0,1.4512624E0,-5.4955576E-2,-6.163776E-1,3.59319E-1,-1.4816606E0,3.517727E-1,7.186146E-2,6.9082236E-1,-1.1540047E0,9.498326E-1,-7.573157E-1,1.3563994E0,-9.9276733E-1,-1.321882E0,-1.2325649E0,-1.2434402E0,-7.6621616E-1,-1.1546247E0,-5.6739527E-1,-4.2912483E-1,6.46797E-1,-8.447626E-1,-5.3207546E-2,-1.5647946E-1,6.386768E-1,1.854546E-1,9.5979273E-1,9.5857275E-1,1.3660365E0,4.4518467E-2,-5.7141572E-2,2.45335E-2,-3.7540246E-2,6.741674E-2,1.8538373E-2,7.1307786E-2,8.072873E-2,2.1522122E-2,-7.849741E-3,-3.95996E-2,-5.345258E-3,3.227391E-3,2.500997E-2,-4.8617993E-2,-7.537851E-2,1.012954E-2,2.4476016E-2,1.0080453E-2,-1.5133101E-2,4.4660646E-2,2.7645504E-2,-6.1234076E-2,1.3236887E-2,3.031376E-2,5.6495797E-2,-9.150687E-3,-7.119147E-2,6.0568135E-2,6.979936E-2,-1.5726833E-2,-7.1916424E-2,-6.640406E-2,-6.504568E-2,-6.449728E-2,-5.2471723E-2,-6.350323E-2,-4.569322E-2,-4.2164143E-2,7.3482315E-3,-6.1176635E-2,-4.8598237E-2,4.597535E-2,-3.317714E-2,-3.629126E-2,-1.471179E-3,1.7657662E-2,6.0180414E-2,-1.4052774E-2,-4.6246927E-2,-2.2552041E-2,1.0611388E-2,-1.3072659E-2,3.9223097E-2,2.0549558E-2,5.214512E-2,3.5770019E-3,5.3448826E-2,3.8794626E-2,6.477909E-2,4.0582072E-2,6.321994E-2,1.4988655E-2,6.935042E-2],"categories":[],"categories_nodes":[],"categories_segments":[],"categories_sizes":[],"default_left":[0,0,0,0,0,0,0,0,0,0,0,0,0,0,0,0,0,0,0,0,0,0,0,0,0,0,0,0,0,0,0,0,0,0,0,0,0,0,0,0,0,0,0,0,0,0,0,0,0,0,0,0,0,0,0,0,0,0,0,0,0,0,0,0,0,0,0,0,0,0,0,0,0,0,0,0,0,0,0,0,0,0,0,0,0,0,0,0,0,0,0,0,0,0,0,0,0,0,0,0,0,0,0,0,0,0,0,0,0,0,0,0,0,0,0,0,0,0,0,0,0,0,0,0,0,0,0],"id":12,"left_children":[1,3,5,7,9,11,13,15,17,19,21,23,25,27,29,31,33,35,37,39,41,43,45,47,49,51,53,55,57,59,61,63,65,67,69,71,73,75,77,79,81,83,85,87,89,91,93,95,97,99,101,103,105,107,109,111,113,115,117,119,121,123,125,-1,-1,-1,-1,-1,-1,-1,-1,-1,-1,-1,-1,-1,-1,-1,-1,-1,-1,-1,-1,-1,-1,-1,-1,-1,-1,-1,-1,-1,-1,-1,-1,-1,-1,-1,-1,-1,-1,-1,-1,-1,-1,-1,-1,-1,-1,-1,-1,-1,-1,-1,-1,-1,-1,-1,-1,-1,-1,-1,-1,-1,-1,-1,-1],"loss_changes":[1.1029005E5,3.8187086E4,3.0649219E3,6.2542173E3,4.555867E3,2.0989844E2,6.730005E2,7.723838E2,6.7639243E3,3.1469507E2,2.6925703E3,5.2632812E1,1.5382935E2,3.5869763E2,5.3388824E1,3.1285095E2,4.222705E1,3.5010122E3,3.4350789E3,8.633615E1,2.7600867E2,2.732079E3,7.911719E2,1.390625E1,7.350195E1,8.5868164E1,3.552807E1,9.305762E1,9.6552895E1,5.187362E1,6.57135E0,1.037312E2,3.0094086E2,1.4943884E2,3.9689941E0,1.235378E3,1.7917554E3,1.2712437E3,1.2366699E1,7.422937E1,7.715823E1,9.949353E1,8.657471E0,7.5901953E2,3.8834216E2,2.0236328E2,4.3147278E1,3.2890625E0,2.0354736E1,4.9899414E1,2.4684326E1,3.633203E1,4.0057274E1,2.3664444E1,5.5179024E0,6.808716E1,1.760949E1,7.172288E1,1.7382515E1,2.4139944E1,7.3910675E0,5.3787384E0,1.1423798E0,0E0,0E0,0E0,0E0,0E0,0E0,0E0,0E0,0E0,0E0,0E0,0E0,0E0,0E0,0E0,0E0,0E0,0E0,0E0,0E0,0E0,0E0,0E0,0E0,0E0,0E0,0E0,0E0,0E0,0E0,0E0,0E0,0E0,0E0,0E0,0E0,0E0,0E0,0E0,0E0,0E0,0E0,0E0,0E0,0E0,0E0,0E0,0E0,0E0,0E0,0E0,0E0,0E0,0E0,0E0,0E0,0E0,0E0,0E0,0E0,0E0,0E0,0E0,0E0],"parents":[2147483647,0,0,1,1,2,2,3,3,4,4,5,5,6,6,7,7,8,8,9,9,10,10,11,11,12,12,13,13,14,14,15,15,16,16,17,17,18,18,19,19,20,20,21,21,22,22,23,23,24,24,25,25,26,26,27,27,28,28,29,29,30,30,31,31,32,32,33,33,34,34,35,35,36,36,37,37,38,38,39,39,40,40,41,41,42,42,43,43,44,44,45,45,46,46,47,47,48,48,49,49,50,50,51,51,52,52,53,53,54,54,55,55,56,56,57,57,58,58,59,59,60,60,61,61,62,62],"right_children":[2,4,6,8,10,12,14,16,18,20,22,24,26,28,30,32,34,36,38,40,42,44,46,48,50,52,54,56,58,60,62,64,66,68,70,72,74,76,78,80,82,84,86,88,90,92,94,96,98,100,102,104,106,108,110,112,114,116,118,120,122,124,126,-1,-1,-1,-1,-1,-1,-1,-1,-1,-1,-1,-1,-1,-1,-1,-1,-1,-1,-1,-1,-1,-1,-1,-1,-1,-1,-1,-1,-1,-1,-1,-1,-1,-1,-1,-1,-1,-1,-1,-1,-1,-1,-1,-1,-1,-1,-1,-1,-1,-1,-1,-1,-1,-1,-1,-1,-1,-1,-1,-1,-1,-1,-1,-1],"split_conditions":[2.04953E-1,7.223828E-1,7E0,1.33E-1,4.1323414E-1,6E0,9E0,9.937968E-1,4.8163217E-1,1.0877357E0,1.0144646E0,5E0,2E0,1E0,1E1,9.3494E-2,1.3208435E0,7.77272E-1,1.7002351E0,9.099672E-1,2.1524334E0,1.4146624E0,2.4271414E0,2E0,2E0,1E0,3E0,1E0,2E0,1E0,1E0,2E0,7.918603E-1,9.3494E-2,1.13417E-1,3.54237E-1,1.2748784E0,5.27023E-1,4.8922E-1,2.3082697E-1,2.56479E-1,1.233103E0,3.80835E-1,7.997048E-1,1.7342448E0,1.2783964E0,1.1601572E0,4E0,4E0,1E0,1E0,1E0,2.0705635E2,2.77998E-1,2.8130564E3,5.3435376E2,2.2125836E-1,1E0,8E0,1E0,3.61734E-1,1.1E1,1.055964E0,4.4518467E-2,-5.7141572E-2,2.45335E-2,-3.7540246E-2,6.741674E-2,1.8538373E-2,7.1307786E-2,8.072873E-2,2.1522122E-2,-7.849741E-3,-3.95996E-2,-5.345258E-3,3.227391E-3,2.500997E-2,-4.8617993E-2,-7.537851E-2,1.012954E-2,2.4476016E-2,1.0080453E-2,-1.5133101E-2,4.4660646E-2,2.7645504E-2,-6.1234076E-2,1.3236887E-2,3.031376E-2,5.6495797E-2,-9.150687E-3,-7.119147E-2,6.0568135E-2,6.979936E-2,-1.5726833E-2,-7.1916424E-2,-6.640406E-2,-6.504568E-2,-6.449728E-2,-5.2471723E-2,-6.350323E-2,-4.569322E-2,-4.2164143E-2,7.3482315E-3,-6.1176635E-2,-4.8598237E-2,4.597535E-2,-3.317714E-2,-3.629126E-2,-1.471179E-3,1.7657662E-2,6.0180414E-2,-1.4052774E-2,-4.6246927E-2,-2.2552041E-2,1.0611388E-2,-1.3072659E-2,3.9223097E-2,2.0549558E-2,5.214512E-2,3.5770019E-3,5.3448826E-2,3.8794626E-2,6.477909E-2,4.0582072E-2,6.321994E-2,1.4988655E-2,6.935042E-2],"split_indices":[8,12,6,12,4,6,6,4,12,12,12,6,7,7,6,12,4,4,4,12,12,4,4,7,7,10,7,10,7,7,7,6,4,12,12,4,4,4,12,4,4,12,4,4,4,12,12,6,6,10,10,7,9,12,9,9,4,10,6,10,4,6,8,0,0,0,0,0,0,0,0,0,0,0,0,0,0,0,0,0,0,0,0,0,0,0,0,0,0,0,0,0,0,0,0,0,0,0,0,0,0,0,0,0,0,0,0,0,0,0,0,0,0,0,0,0,0,0,0,0,0,0,0,0,0,0,0],"split_type":[0,0,0,0,0,0,0,0,0,0,0,0,0,0,0,0,0,0,0,0,0,0,0,0,0,0,0,0,0,0,0,0,0,0,0,0,0,0,0,0,0,0,0,0,0,0,0,0,0,0,0,0,0,0,0,0,0,0,0,0,0,0,0,0,0,0,0,0,0,0,0,0,0,0,0,0,0,0,0,0,0,0,0,0,0,0,0,0,0,0,0,0,0,0,0,0,0,0,0,0,0,0,0,0,0,0,0,0,0,0,0,0,0,0,0,0,0,0,0,0,0,0,0,0,0,0,0],"sum_hessian":[1.9514873E5,1.4168406E5,5.3464676E4,8.384604E4,5.7838016E4,5.0288203E4,3.176473E3,7.2209355E3,7.66251E4,8.864957E3,4.897306E4,4.6799184E4,3.4890186E3,2.5916768E3,5.8479614E2,4.5111235E3,2.7098123E3,4.4965945E4,3.165916E4,5.20163E3,3.6633267E3,1.3292454E4,3.5680605E4,4.063322E4,6.1659634E3,3.254945E3,2.3407344E2,1.6761001E3,9.155768E2,3.7457858E2,2.1021758E2,2.777826E3,1.7332976E3,1.1811583E3,1.5286538E3,2.4939828E4,2.0026115E4,3.0611893E4,1.0472683E3,3.6160562E3,1.585574E3,3.5812202E3,8.2106316E1,1.2278242E4,1.0142115E3,3.553733E4,1.4327759E2,3.8568367E4,2.0648525E3,5.8179746E3,3.4798917E2,2.9800176E3,2.749275E2,1.9872598E2,3.5347454E1,1.5112484E3,1.6485165E2,7.230539E2,1.925229E2,2.3960979E2,1.349688E2,1.4153757E2,6.868E1,2.7533152E3,2.451081E1,1.5099712E3,2.2332643E2,9.945393E2,1.8661903E2,1.333397E3,1.9525691E2,4.3315483E3,2.060828E4,1.4892231E4,5.133885E3,9.8997E3,2.0712191E4,5.2563576E1,9.947048E2,1.7371635E3,1.8788927E3,1.177953E3,4.0762103E2,1.4491182E3,2.132102E3,7.8340454E1,3.7658617E0,4.2240645E3,8.0541777E3,5.4547614E2,4.6873532E2,7.6268193E3,2.7910508E4,5.748308E1,8.579452E1,2.9719656E4,8.848712E3,1.5676229E3,4.9722955E2,5.3804653E3,4.375089E2,3.2097726E2,2.7011896E1,2.159611E3,8.204065E2,1.6177786E1,2.587497E2,1.1359093E2,8.513506E1,2.4212715E1,1.1134739E1,1.8874055E2,1.3225078E3,6.5692604E1,9.915904E1,6.511339E2,7.1919945E1,1.2444454E2,6.807837E1,2.132021E2,2.6407684E1,8.9347084E1,4.5621708E1,9.8073166E1,4.3464405E1,1.6197933E0,6.70602E1],"tree_param":{"num_deleted":"0","num_feature":"13","num_nodes":"127","size_leaf_vector":"1"}},{"base_weights":[-2.1733616E-3,4.4011658E-1,-1.1985472E0,2.3673646E-2,1.0535551E0,-1.2601196E0,-2.4615718E-1,9.1750973E-1,-5.226133E-2,6.839476E-1,1.2532884E0,-1.2784474E0,-1.016324E0,-4.541025E-1,6.818506E-1,1.0660621E0,5.151487E-1,-3.0026993E-1,2.5338906E-1,6.926998E-2,6.4117575E-1,1.1085427E0,1.306352E0,-1.2916834E0,-1.1913046E0,-1.153562E0,-7.307089E-1,-7.1904916E-1,2.404418E-2,4.564351E-1,1.0883132E0,1.076752E0,-1.0180047E0,5.3857183E-1,-7.5962074E-2,1.253582E-1,-3.9841777E-1,2.3227774E-2,3.4422353E-1,6.031945E-1,9.3597364E-1,1.0826705E0,1.1985533E0,1.279297E0,1.3437597E0,-1.2932913E0,-1.0301037E0,-1.2007442E0,-4.391004E-2,-1.1885988E0,-7.63856E-1,-8.0978733E-1,1.600269E-1,-7.976098E-1,-1.713138E-2,-1.4036933E-1,6.334874E-1,1.7983493E-1,9.455515E-1,9.572169E-1,1.3606694E0,5.925736E-2,4.9121533E-2,-5.8006883E-2,9.637455E-3,1.2805069E-2,2.7837304E-2,1.4742817E-2,1.0483083E-3,-2.2761403E-2,-1.48295155E-2,1.226623E-3,-7.567863E-2,1.2585466E-2,2.3403002E-2,2.6846383E-2,3.29426E-2,4.700261E-2,3.808909E-2,5.1072504E-2,5.4626185E-2,6.0201235E-2,5.1572025E-2,6.4523295E-2,6.254094E-2,6.693418E-2,6.9385916E-2,-6.508481E-2,-6.3251555E-2,-5.5991728E-2,-4.452204E-3,-6.115659E-2,-4.6391416E-2,1.8334178E-2,-1.956441E-2,-4.644439E-2,-6.049043E-2,1.3529317E-2,-4.1446436E-2,-4.27843E-2,2.4440987E-2,7.028801E-2,-9.365363E-3,-4.7646474E-2,-2.4102358E-2,-9.582395E-3,1.712468E-2,-2.0422844E-2,1.5092092E-2,2.262054E-2,4.931288E-2,2.9967397E-3,5.9783317E-2,4.131777E-2,6.987941E-2,4.0355857E-2,6.297692E-2,7.032089E-2,3.8448904E-2],"categories":[],"categories_nodes":[],"categories_segments":[],"categories_sizes":[],"default_left":[0,0,0,0,0,0,0,0,0,0,0,0,0,0,0,0,0,0,0,0,0,0,0,0,0,0,0,0,0,0,0,0,0,0,0,0,0,0,0,0,0,0,0,0,0,0,0,0,0,0,0,0,0,0,0,0,0,0,0,0,0,0,0,0,0,0,0,0,0,0,0,0,0,0,0,0,0,0,0,0,0,0,0,0,0,0,0,0,0,0,0,0,0,0,0,0,0,0,0,0,0,0,0,0,0,0,0,0,0,0,0,0,0,0,0,0,0,0,0],"id":13,"left_children":[1,3,5,7,9,11,13,15,17,19,21,23,25,27,29,31,33,35,37,-1,39,41,43,45,47,49,51,53,55,57,59,61,63,65,-1,67,69,71,73,75,77,79,81,83,85,87,89,91,93,95,97,99,101,103,105,107,109,111,113,115,117,-1,-1,-1,-1,-1,-1,-1,-1,-1,-1,-1,-1,-1,-1,-1,-1,-1,-1,-1,-1,-1,-1,-1,-1,-1,-1,-1,-1,-1,-1,-1,-1,-1,-1,-1,-1,-1,-1,-1,-1,-1,-1,-1,-1,-1,-1,-1,-1,-1,-1,-1,-1,-1,-1,-1,-1,-1,-1],"loss_changes":[1.0167628E5,3.583843E4,3.0410156E3,5.6717266E3,4.1869062E3,2.16375E2,6.08302E2,3.9054688E2,5.838526E3,5.96249E2,2.8139844E2,5.0703125E1,1.3285815E2,3.2616138E2,5.238327E1,1.0753906E2,8.498486E1,1.7762998E3,7.212986E2,0E0,2.0949756E2,2.1723633E1,2.5546875E1,1.5203125E1,6.4788086E1,3.0526855E1,7.829968E1,9.133618E1,9.2162155E1,5.029017E1,6.0230865E0,4.744043E1,4.5079594E0,8.825531E0,0E0,1.4098828E2,1.9974658E2,1.9614761E1,2.8329907E2,6.09541E1,8.03833E-1,3.5214844E0,7.67334E-1,3.3671875E0,6.6015625E-1,7.6367188E0,2.0598785E1,3.5143555E1,7.259114E0,1.0501709E1,1.3196175E1,6.118158E1,3.977851E1,7.256146E1,1.05949545E1,8.60113E1,1.2036171E1,2.9096907E1,6.091919E0,5.4214325E0,6.588669E-1,0E0,0E0,0E0,0E0,0E0,0E0,0E0,0E0,0E0,0E0,0E0,0E0,0E0,0E0,0E0,0E0,0E0,0E0,0E0,0E0,0E0,0E0,0E0,0E0,0E0,0E0,0E0,0E0,0E0,0E0,0E0,0E0,0E0,0E0,0E0,0E0,0E0,0E0,0E0,0E0,0E0,0E0,0E0,0E0,0E0,0E0,0E0,0E0,0E0,0E0,0E0,0E0,0E0,0E0,0E0,0E0,0E0,0E0],"parents":[2147483647,0,0,1,1,2,2,3,3,4,4,5,5,6,6,7,7,8,8,9,9,10,10,11,11,12,12,13,13,14,14,15,15,16,16,17,17,18,18,20,20,21,21,22,22,23,23,24,24,25,25,26,26,27,27,28,28,29,29,30,30,31,31,32,32,33,33,35,35,36,36,37,37,38,38,39,39,40,40,41,41,42,42,43,43,44,44,45,45,46,46,47,47,48,48,49,49,50,50,51,51,52,52,53,53,54,54,55,55,56,56,57,57,58,58,59,59,60,60],"right_children":[2,4,6,8,10,12,14,16,18,20,22,24,26,28,30,32,34,36,38,-1,40,42,44,46,48,50,52,54,56,58,60,62,64,66,-1,68,70,72,74,76,78,80,82,84,86,88,90,92,94,96,98,100,102,104,106,108,110,112,114,116,118,-1,-1,-1,-1,-1,-1,-1,-1,-1,-1,-1,-1,-1,-1,-1,-1,-1,-1,-1,-1,-1,-1,-1,-1,-1,-1,-1,-1,-1,-1,-1,-1,-1,-1,-1,-1,-1,-1,-1,-1,-1,-1,-1,-1,-1,-1,-1,-1,-1,-1,-1,-1,-1,-1,-1,-1,-1,-1],"split_conditions":[2.04953E-1,7.223828E-1,7E0,1.25254E-1,1.063413E0,6E0,9E0,9.3494E-2,4.62961E-1,7.22925E-1,1.338574E0,5E0,1E0,1E0,1E1,2E0,2E0,2.15181E-1,5.2623E-1,6.926998E-2,1.0144646E0,1.2783964E0,1.9263133E0,3E0,3E0,1E0,1E0,1E0,2E0,1E0,1.1E1,5.0832E-2,2E0,1.5395692E3,-7.5962074E-2,1.68807E-1,3.75181E-1,2E0,6.23405E-1,8.2230353E-1,2.339768E4,1.0877357E0,2.323517E4,1.613383E0,4.1588063E0,4E0,1E0,1E0,1.4067994E3,3.4953247E2,2.4619518E2,3E0,7.264813E2,8E0,8E0,8E0,8E0,1E0,2E0,1E0,2.2E1,5.925736E-2,4.9121533E-2,-5.8006883E-2,9.637455E-3,1.2805069E-2,2.7837304E-2,1.4742817E-2,1.0483083E-3,-2.2761403E-2,-1.48295155E-2,1.226623E-3,-7.567863E-2,1.2585466E-2,2.3403002E-2,2.6846383E-2,3.29426E-2,4.700261E-2,3.808909E-2,5.1072504E-2,5.4626185E-2,6.0201235E-2,5.1572025E-2,6.4523295E-2,6.254094E-2,6.693418E-2,6.9385916E-2,-6.508481E-2,-6.3251555E-2,-5.5991728E-2,-4.452204E-3,-6.115659E-2,-4.6391416E-2,1.8334178E-2,-1.956441E-2,-4.644439E-2,-6.049043E-2,1.3529317E-2,-4.1446436E-2,-4.27843E-2,2.4440987E-2,7.028801E-2,-9.365363E-3,-4.7646474E-2,-2.4102358E-2,-9.582395E-3,1.712468E-2,-2.0422844E-2,1.5092092E-2,2.262054E-2,4.931288E-2,2.9967397E-3,5.9783317E-2,4.131777E-2,6.987941E-2,4.0355857E-2,6.297692E-2,7.032089E-2,3.8448904E-2],"split_indices":[8,12,6,12,12,6,6,12,12,12,12,6,7,7,6,6,6,12,12,0,12,12,12,7,7,10,10,10,7,7,6,12,7,0,0,12,12,6,12,12,0,12,0,12,12,6,10,10,0,9,9,7,9,6,6,6,6,10,7,7,2,0,0,0,0,0,0,0,0,0,0,0,0,0,0,0,0,0,0,0,0,0,0,0,0,0,0,0,0,0,0,0,0,0,0,0,0,0,0,0,0,0,0,0,0,0,0,0,0,0,0,0,0,0,0,0,0,0,0],"split_type":[0,0,0,0,0,0,0,0,0,0,0,0,0,0,0,0,0,0,0,0,0,0,0,0,0,0,0,0,0,0,0,0,0,0,0,0,0,0,0,0,0,0,0,0,0,0,0,0,0,0,0,0,0,0,0,0,0,0,0,0,0,0,0,0,0,0,0,0,0,0,0,0,0,0,0,0,0,0,0,0,0,0,0,0,0,0,0,0,0,0,0,0,0,0,0,0,0,0,0,0,0,0,0,0,0,0,0,0,0,0,0,0,0,0,0,0,0,0,0],"sum_hessian":[1.9215034E5,1.4028772E5,5.186262E4,8.3561586E4,5.6726133E4,4.8712992E4,3.14963E3,6.542168E3,7.7019414E4,1.9901932E4,3.68242E4,4.5303004E4,3.4099863E3,2.5734822E3,5.761478E2,4.7768853E3,1.7652831E3,4.251899E4,3.4500426E4,1.141995E3,1.8759936E4,9.884208E3,2.6939992E4,3.9317316E4,5.985691E3,2.3012158E3,1.1087706E3,1.6555942E3,9.17888E2,3.7197906E2,2.0416875E2,4.752989E3,2.3896221E1,1.7459165E3,1.9366516E1,7.967377E3,3.4551613E4,9.763189E3,2.4737238E4,1.6621496E4,2.1384397E3,7.6875586E3,2.1966492E3,1.5653684E4,1.1286309E4,3.9073195E4,2.4412108E2,5.9368022E3,4.8888332E1,2.1095085E3,1.9170721E2,1.0184451E3,9.0325424E1,1.4888243E3,1.6676982E2,7.2347974E2,1.9440822E2,2.3848251E2,1.3349655E2,1.4087457E2,6.3294163E1,2.20612E3,2.546869E3,2.142312E1,2.4731004E0,1.06454346E2,1.6394622E3,3.036035E3,4.931342E3,2.2175996E4,1.2375615E4,9.755891E3,7.2983584E0,1.4161028E4,1.057621E4,